commonwealth-distance-learning-scholarships.txt 0.222593 -0.166665 -0.066459 -0.003158 0.035914 -0.035840 -0.076468 -0.096296 0.000838 -0.058705 -0.035563 -0.009594 0.027239 0.100558 -0.143940 -0.063335 0.056237 0.020093 -0.021403 0.148004 -0.068863 -0.038314 -0.147203 0.152088 -0.100827 0.107103 0.009748 -0.089348 -0.007261 0.131809 0.128527 0.199505 -0.143005 -0.070067 0.074907 -0.019325 0.112297 0.218611 -0.017546 -0.055692 -0.017826 0.047614 0.137448 -0.085205 -0.131865 -0.146323 0.155940 0.022621 0.029772 0.012336 -0.057750 -0.093373 0.038293 0.057250 0.026152 0.030913 0.067576 -0.012445 -0.005079 0.011778 0.092317 -0.025458 0.041394 -0.061832 0.083864 0.021880 -0.082078 0.051489 -0.016880 -0.051008 0.053459 0.030154 -0.063020 0.023310 -0.027341 -0.006283 -0.067564 0.015575 -0.018216 0.016254 0.036862 -0.010131 0.018501 -0.022750 0.021423 -0.009235 -0.005737 0.070699 0.050024 -0.027257 0.012928 -0.012248 0.000895 0.005514 0.019244 -0.023647 -0.085067 -0.018415 0.070410 -0.021679
kyushu-university-japanese-language-and-culture-course.txt 0.242209 -0.007782 0.002861 -0.002094 -0.099560 -0.041381 -0.008370 0.071345 -0.176585 0.272626 0.218300 -0.019773 0.187383 0.158111 -0.027202 0.044008 0.067754 -0.017773 0.003581 -0.015492 -0.045812 0.003553 -0.003505 -0.141094 -0.009261 0.011747 -0.024084 0.007079 -0.013548 -0.013380 -0.002852 0.053672 -0.049554 0.075964 -0.022272 -0.095670 -0.065495 0.033027 0.021112 -0.013527 0.062384 0.034605 -0.061710 -0.092109 0.041335 -0.115588 -0.018617 -0.026774 0.074264 -0.026572 0.007322 0.004124 0.097440 -0.128908 -0.003229 0.053587 0.003962 0.049094 -0.106888 -0.029070 -0.011126 -0.088381 -0.001446 0.093938 0.045739 -0.067170 0.050655 -0.044958 0.076855 0.069466 0.087725 -0.232982 -0.031578 -0.058334 0.054535 -0.008359 0.017513 0.042671 0.028261 -0.050851 0.074221 0.020760 -0.041193 0.014951 0.091583 -0.073717 0.020481 0.035733 0.020509 -0.010847 0.058299 -0.027137 0.076392 0.023530 -0.000203 -0.027786 0.057490 -0.011649 0.118289 -0.033310
adobe-illustrator-free-course.txt 0.315892 0.232306 -0.012924 0.002683 -0.156690 -0.032861 -0.015755 0.026118 -0.005499 0.012213 -0.018540 -0.009544 -0.006396 -0.001508 -0.045008 -0.004019 -0.027664 -0.131968 0.031133 -0.079094 -0.046826 0.057763 0.060488 -0.015928 0.039274 0.018895 0.041103 -0.041365 -0.002914 0.079065 0.001554 0.038125 0.056775 -0.098468 -0.004377 0.055356 0.013952 -0.004925 -0.049540 -0.025109 -0.104154 0.072006 -0.073248 -0.077330 -0.066290 0.002917 0.031271 -0.098486 -0.003562 0.018629 -0.099536 0.013043 -0.019011 0.002808 -0.112201 0.081129 -0.106773 -0.097130 0.282979 0.216161 -0.113351 -0.130293 0.075753 0.200272 -0.029986 -0.073449 0.025377 0.083154 -0.021560 0.076412 -0.067164 0.006615 -0.114157 -0.008422 -0.116513 0.046772 0.013577 0.070439 0.091060 0.050850 -0.004373 0.016855 0.031224 0.059740 -0.123022 0.033075 0.069454 0.021531 0.075198 0.006760 0.043536 0.056284 0.006466 -0.032703 0.057562 0.040049 -0.010191 0.013503 0.041566 -0.060677
mit-free-online-courses.txt 0.326949 0.195727 -0.014873 -0.038137 0.345867 0.026311 -0.036339 0.003127 -0.063293 -0.021968 0.033140 0.024975 0.012730 -0.000481 0.024987 0.009061 -0.046701 -0.178983 -0.028059 -0.053860 0.025156 0.108039 -0.010852 0.011556 0.134400 -0.019356 -0.124963 -0.006168 -0.013454 0.068725 -0.071084 -0.055056 -0.126157 -0.082688 0.283001 0.172471 0.091665 -0.024137 -0.105092 0.009473 0.080186 0.044689 0.112821 -0.061585 0.059536 -0.015807 0.104377 -0.115088 -0.009642 0.077011 0.127037 0.138934 0.047944 -0.116166 0.148252 -0.017557 0.101568 0.045891 0.027545 0.020020 0.046709 0.097426 -0.052371 0.032104 -0.053408 -0.069462 0.035126 -0.032241 -0.013915 -0.115229 -0.039761 -0.043445 -0.007253 -0.019589 -0.016462 0.012356 0.040938 -0.027580 -0.065246 0.021207 -0.022540 0.021048 -0.110593 0.019176 0.005146 -0.030929 0.004044 0.021488 0.009278 -0.054980 -0.011290 0.033119 0.011191 0.034121 -0.044977 0.000026 0.017354 0.013795 0.036214 0.015575
8-things-you-must-have-before-applying-for-scholarship-2.txt 0.137715 -0.188492 -0.141294 -0.076744 -0.023171 0.030608 0.021888 0.020411 0.003379 -0.025904 0.098239 0.058177 -0.079553 -0.067349 0.053315 -0.018728 -0.069952 -0.045091 0.036868 0.015460 0.040422 -0.023395 -0.011679 0.078714 0.025399 0.001361 -0.029370 0.019108 -0.058249 -0.001693 -0.026068 -0.038170 0.067136 -0.076631 0.035583 0.071823 -0.039673 -0.021953 0.014622 0.065763 -0.074929 -0.015014 -0.002042 0.056653 -0.101981 0.012900 -0.033699 0.028067 0.039177 -0.019394 0.076225 0.000524 0.040147 -0.014086 0.106341 0.105841 -0.054778 0.092992 -0.061574 0.004096 0.008882 -0.059672 0.033540 0.078167 0.060548 -0.040041 0.215113 -0.070942 -0.179333 -0.026674 0.080309 0.048964 -0.032993 0.021689 -0.085599 -0.101236 -0.029529 -0.121830 -0.107350 -0.072265 -0.149388 0.003834 -0.001349 -0.034898 -0.018881 -0.143824 0.104093 0.182693 -0.012756 -0.088200 -0.184648 -0.070922 0.163003 0.048984 0.068420 0.094282 -0.064792 0.192566 -0.044202 0.043477
tianjin-government-scholarship.txt 0.257235 -0.296823 -0.177050 -0.061518 -0.067170 -0.015996 -0.007500 -0.033230 -0.070486 0.068556 0.016068 0.004573 -0.139295 -0.148657 0.104505 0.040326 -0.221128 -0.016327 -0.114163 0.017420 0.109094 -0.111500 0.108254 -0.035733 -0.040046 0.161268 0.105882 0.083227 -0.008047 -0.073338 -0.016741 0.000679 -0.017254 0.048297 0.048846 0.044882 0.129078 0.024152 -0.009998 -0.022776 -0.018531 -0.030100 0.033246 0.036822 -0.047400 0.024809 -0.015547 -0.030001 0.009829 0.032653 0.013715 -0.024472 -0.006620 0.029271 0.014598 -0.011848 -0.025886 -0.007020 0.006601 -0.017677 0.019238 -0.009070 -0.011906 0.008235 -0.022742 -0.053384 -0.007447 0.001859 -0.021185 -0.001625 -0.030933 0.010593 0.046405 0.043832 0.004042 -0.011596 -0.014687 -0.036404 0.026297 -0.003699 0.107063 0.045806 -0.015635 -0.053413 -0.009334 0.019343 0.019023 -0.043837 -0.010379 0.031310 -0.014890 -0.010013 -0.044636 -0.037590 0.013465 0.008511 -0.045168 0.012367 0.070060 -0.015161
hku-cds-research-internship-program.txt 0.155530 -0.151671 0.304549 -0.064209 0.006230 -0.077673 0.092347 0.009872 -0.028966 0.027999 -0.077870 -0.113532 0.111042 -0.029979 -0.008848 -0.045704 -0.018357 0.023231 0.033044 0.034621 0.013539 -0.031516 0.029250 0.015105 0.021008 0.003380 0.007510 0.017652 -0.012955 -0.018153 -0.000659 -0.015254 -0.019873 -0.007070 0.025070 -0.019064 -0.007739 0.001183 0.003585 0.072012 -0.040962 0.015105 -0.050461 -0.041538 -0.027946 -0.040424 -0.062705 -0.050731 -0.043923 -0.024369 -0.000197 0.043165 -0.017577 0.019321 0.089644 -0.088333 -0.040542 -0.039371 0.016299 -0.038203 -0.032498 -0.049008 0.028950 -0.045703 0.022266 0.031325 -0.025142 -0.033466 -0.030046 0.016985 -0.057617 0.059609 -0.034779 0.017729 -0.114380 0.017294 -0.054332 -0.080507 -0.082407 -0.038934 -0.001506 0.093512 -0.037056 0.051698 0.043150 0.020536 -0.053510 0.000600 -0.074627 0.138132 0.012208 -0.038924 -0.017176 -0.036285 0.076227 -0.032838 0.028950 -0.024062 -0.029182 -0.031955
malaysian-technical-cooperation-program-mtcp-scholarship.txt 0.212898 -0.200412 -0.075743 -0.027070 -0.012553 -0.012498 0.006525 -0.015512 -0.058119 0.023506 0.027365 -0.020330 -0.081558 -0.073268 0.004502 0.020414 -0.014398 0.065059 -0.054387 -0.030316 0.007212 0.007473 0.019478 0.080583 0.052465 0.015434 0.033735 -0.023091 0.071054 0.029521 0.040006 -0.035153 0.023997 -0.052071 0.003007 -0.018976 0.091960 -0.032106 -0.012580 0.033526 -0.027963 0.003764 0.042245 0.114059 0.093470 -0.008211 0.003957 0.037745 -0.039980 0.010993 -0.019108 0.004223 0.029050 0.085396 -0.050633 -0.054237 -0.011501 0.020585 0.035046 0.008447 0.027282 -0.024777 -0.086117 0.055573 -0.058670 -0.156616 0.008334 0.013423 -0.029844 -0.053915 -0.013604 -0.035815 0.027097 0.062965 -0.031447 -0.080335 -0.074657 0.018204 0.173214 0.014077 0.119254 0.141494 -0.165682 -0.092942 0.039075 -0.075058 -0.180079 0.151524 0.002771 0.056865 0.001662 -0.046223 0.124492 0.010339 -0.025366 -0.010138 0.072724 -0.178068 0.019040 0.012788
biozentrum-phd-fellowships-program-in-switzerland.txt 0.170902 -0.151192 0.056592 0.265232 0.027483 -0.071190 0.021279 0.013589 0.020943 -0.021917 -0.008308 -0.036539 0.014697 -0.015659 0.004649 0.012859 0.038082 0.003262 -0.059215 -0.017922 -0.002298 0.003011 -0.056491 -0.089565 0.065571 -0.033988 0.026487 -0.043237 0.122845 0.003835 -0.092877 -0.000024 -0.048726 -0.063840 -0.051226 -0.085074 0.053760 -0.031640 0.074262 0.019843 -0.025071 -0.029078 -0.102600 -0.009693 0.009304 0.058288 -0.020496 -0.153230 0.088223 -0.062461 -0.030855 -0.097095 0.086129 -0.090862 -0.071160 -0.001676 0.091586 -0.110925 -0.131601 0.072269 0.167003 -0.042762 -0.051404 0.035875 0.062762 0.136132 -0.086246 0.154555 0.075747 -0.010865 -0.026445 -0.007092 -0.062022 0.021039 -0.021351 0.035621 0.137758 -0.040336 -0.025500 0.005916 -0.029259 -0.071915 0.059321 0.097731 0.014334 0.002073 -0.027903 0.039985 -0.037122 -0.056187 -0.153725 -0.094801 0.060955 -0.010340 0.009908 -0.104131 -0.089235 -0.180129 -0.007003 -0.137407
griffith-university-research-scholarships.txt 0.243074 -0.272184 -0.096451 0.055869 0.006384 -0.146834 -0.003559 -0.100329 0.013693 0.030012 -0.089159 -0.321234 0.316853 -0.105343 0.051003 -0.070138 0.075200 0.017263 0.071512 0.026188 -0.021092 0.017316 0.036806 0.015946 -0.002204 0.024948 0.004680 0.034399 -0.067124 0.022964 0.031948 0.082941 0.009998 0.024258 0.029338 0.068800 -0.028669 -0.026495 -0.047828 -0.072419 -0.032466 0.024432 -0.008053 0.044128 0.020440 -0.009859 0.023546 0.012315 -0.008753 0.000172 0.003294 -0.031472 -0.008863 -0.029476 -0.024996 0.028019 -0.010400 0.032012 -0.036304 -0.007045 -0.001660 0.007933 0.029688 -0.028543 -0.009836 0.010220 -0.001952 -0.013256 0.020234 0.013748 0.028226 0.013920 -0.015518 -0.034063 -0.027751 0.009891 0.003152 0.048145 0.010993 -0.021511 -0.002726 -0.048754 -0.020684 0.013909 0.013982 -0.034815 0.020129 -0.020147 0.033390 0.002392 -0.065223 0.012709 -0.076045 0.033834 -0.027658 0.055390 -0.001981 0.052425 0.032398 -0.044893
twas-iccbs-postgraduate-fellowship-programme.txt 0.142460 -0.133148 0.076703 0.440797 0.028645 -0.036103 0.075161 0.094506 -0.016238 -0.039637 -0.013374 0.035682 -0.012279 0.022070 -0.018676 0.019304 -0.014026 -0.041738 0.047097 -0.026795 -0.039282 -0.130044 0.004201 0.021396 0.092216 0.000008 0.038920 -0.054316 0.202695 -0.107311 -0.056684 0.099514 -0.012292 -0.041309 0.138028 -0.158849 0.072222 0.021469 0.027099 0.086404 -0.168875 0.262347 0.016937 0.191047 0.137979 -0.010064 0.057006 0.126539 -0.003530 -0.018431 0.005624 -0.001134 0.004919 0.016562 -0.041911 0.030777 0.044861 -0.024509 0.002985 -0.039839 0.066281 0.024980 -0.015596 0.064544 -0.039781 0.032007 0.043813 -0.080743 -0.066562 0.007242 0.030014 -0.017390 -0.087594 -0.024516 -0.004810 0.000621 -0.013296 0.010624 -0.020700 0.027490 0.021642 -0.010837 -0.022503 0.019056 0.001440 0.055778 -0.024487 -0.040493 0.037112 0.011783 0.036984 -0.019142 -0.018547 0.003745 -0.067855 0.015633 -0.034257 0.026729 0.006512 -0.018535
digital-marketing-analytics-free-course.txt 0.358266 0.255824 0.012071 -0.010878 -0.148919 -0.012761 -0.018699 -0.060396 -0.025317 -0.172150 0.041078 0.339034 0.236113 -0.220179 0.188984 -0.087808 0.012483 0.224435 0.090539 -0.113985 -0.179159 0.078338 -0.055149 -0.046772 -0.074665 0.115492 0.070870 -0.056380 0.041693 0.008295 0.012875 -0.020961 0.074723 -0.013610 0.042947 -0.008839 0.060796 0.031432 -0.006872 0.017580 -0.007823 0.094762 -0.094866 -0.027103 -0.068000 -0.005250 0.056885 -0.066418 0.142799 0.036831 0.035533 0.028826 -0.059348 -0.017800 -0.033219 0.004349 0.090658 0.071036 0.013474 -0.043943 -0.030470 -0.015433 0.070136 -0.045393 -0.016030 -0.053618 0.005427 -0.018428 0.030351 0.008322 -0.010658 0.036191 0.040288 0.005126 -0.022973 -0.000188 -0.023949 0.028198 0.051991 0.037845 0.044835 -0.033453 -0.007582 0.032456 0.022300 0.005902 -0.024790 -0.016906 -0.052649 0.006656 -0.048566 -0.007350 -0.026906 -0.007860 -0.050158 0.022400 0.017583 0.011525 -0.036373 -0.006142
goldman-sachs-10000-women-online-program.txt 0.213812 0.012867 0.033970 0.022329 0.107073 0.011140 -0.046799 -0.007184 -0.021741 0.014344 -0.032836 0.044515 -0.014263 0.002534 -0.077092 -0.043033 0.076538 0.017703 -0.087822 -0.050860 -0.012244 0.162465 0.033171 0.002264 0.057558 0.061985 0.090105 -0.056220 -0.029883 0.069860 0.105910 -0.125623 0.016177 -0.055922 0.004848 -0.055986 0.051673 -0.015213 0.057609 -0.097893 -0.038576 -0.034462 -0.035359 0.024505 0.163659 0.105383 -0.048832 -0.012394 0.004138 0.151337 0.003853 -0.054414 0.094647 0.061077 0.064770 -0.019898 -0.029971 0.024678 -0.098685 0.085644 -0.147637 -0.153537 -0.033539 -0.093173 -0.050843 0.043914 0.085284 -0.200776 -0.074153 0.079740 0.046849 0.005775 0.043899 0.008621 0.031484 -0.082768 -0.000025 -0.117748 -0.041115 0.008180 0.231152 -0.045574 0.131671 0.273705 -0.071800 -0.014625 -0.098512 -0.064843 0.058967 0.028646 -0.028006 -0.096553 -0.008609 -0.050323 0.061402 -0.061375 -0.054198 0.068690 0.001923 -0.156182
cambridge-university-mba-scholarship.txt 0.220437 -0.278301 -0.118978 -0.128165 -0.004534 -0.125337 0.044985 0.071403 0.267103 -0.071102 -0.029467 0.126407 -0.010541 0.229931 0.193992 0.222343 0.063187 0.028461 -0.016309 0.092512 -0.040376 0.010364 0.276309 0.023713 0.050977 0.009692 0.005914 0.093270 -0.127739 -0.034775 0.064074 0.039523 0.124427 -0.087646 0.099178 -0.077300 -0.105794 0.026365 0.078894 0.096085 -0.006454 0.090752 -0.124998 -0.042042 0.048997 -0.105581 0.017634 -0.019159 -0.061279 0.031237 -0.062698 0.185380 -0.016170 -0.025562 0.065784 0.049592 0.111212 0.034947 -0.014581 0.068074 0.041569 -0.060285 -0.059221 0.061457 0.113693 0.042627 -0.058148 0.096491 0.017637 -0.029084 0.012266 0.094369 0.114064 -0.013458 0.094890 -0.108046 0.059800 0.025133 -0.012878 -0.010191 0.064241 -0.016192 0.008310 -0.003299 0.018660 0.039306 0.007071 0.004229 0.009719 -0.004157 -0.008048 -0.004035 0.011310 -0.008740 0.009352 0.020155 -0.009632 0.041326 0.020454 -0.003463
chevening-fellowships-in-uk.txt 0.182969 -0.153797 0.043282 0.376638 0.042515 -0.034298 0.069368 0.071782 -0.014019 -0.067055 0.026886 0.084528 -0.068407 0.088480 -0.038221 -0.020918 -0.013775 -0.033959 0.060979 -0.028589 -0.014482 -0.021934 -0.021482 -0.007666 -0.036379 0.050632 0.056912 0.014246 0.022894 -0.081270 0.038066 0.034081 0.050300 -0.075650 0.021819 0.010752 -0.026981 -0.067229 0.047055 -0.058421 0.049043 -0.066742 0.010300 -0.022130 -0.031261 -0.022771 -0.044734 -0.032117 -0.004820 0.072012 0.008180 -0.018596 0.011823 -0.035341 -0.033541 -0.001865 0.063920 -0.022132 0.026686 0.052140 0.050386 -0.004554 -0.003550 0.013435 -0.056906 -0.013630 -0.062307 0.038979 -0.020025 -0.028579 -0.018775 0.048018 -0.015678 0.059925 0.001956 -0.034629 0.045428 -0.038066 -0.038219 -0.022234 -0.131952 0.058465 0.009761 -0.126767 0.030776 0.082959 0.054695 0.010678 -0.070270 0.099947 -0.045546 -0.044503 0.097885 -0.078184 -0.007298 -0.044123 -0.006157 -0.037816 -0.048405 -0.040165
microsoft-research-fellowship.txt 0.176046 -0.178070 0.079131 0.340401 0.016881 -0.090741 0.041480 0.019864 -0.071496 0.073645 -0.028365 -0.162786 0.201212 -0.047407 0.057332 -0.052227 -0.006144 0.054630 0.096011 0.067021 0.004554 -0.010758 0.130495 0.030014 0.006110 0.014905 -0.018073 0.099625 -0.023029 0.033139 -0.055502 -0.034604 -0.014808 0.035233 0.015110 0.031483 0.001176 0.063093 0.038838 0.037972 0.053397 0.025089 -0.089253 -0.106279 -0.115723 -0.117364 -0.069604 -0.050788 -0.004608 -0.045606 0.078266 0.061111 -0.031168 0.032239 0.115755 -0.100083 -0.175190 -0.085729 -0.033132 -0.001582 -0.035472 0.029192 -0.119954 -0.078048 -0.020482 0.021321 0.072275 0.022185 -0.019512 0.066356 -0.072102 0.047426 -0.114370 0.006506 -0.130956 -0.081727 -0.043782 -0.024298 -0.005909 -0.099539 0.075157 -0.057953 -0.089261 -0.004748 0.097891 -0.051821 -0.106198 0.090395 -0.000330 0.032205 0.074210 -0.041651 0.044727 0.102267 0.055182 0.136591 0.039996 -0.020890 -0.023598 -0.039375
we-are-together-international-prize.txt 0.191092 -0.121516 0.066920 0.078517 -0.017478 0.130253 -0.326639 -0.163019 0.028006 0.200210 -0.203543 0.090780 -0.016677 -0.032397 0.028347 0.030114 -0.127645 -0.035313 0.033712 -0.040521 0.246291 -0.011189 0.158689 -0.167265 -0.093207 -0.157748 0.190389 0.019013 0.045880 -0.083771 0.063337 0.030526 0.116504 0.137187 0.097795 0.052083 0.214863 0.055614 0.039861 -0.007978 -0.016908 -0.019554 0.027988 -0.074558 -0.041027 0.031398 0.037560 0.096200 0.047595 0.004916 -0.006790 -0.017250 0.055457 -0.038638 -0.002601 0.027048 0.010376 -0.041454 -0.036053 -0.014938 -0.012518 -0.038491 0.033489 -0.001980 -0.030091 0.038091 -0.030641 0.061237 0.001704 0.005136 0.017095 -0.008114 0.043903 0.034491 0.029752 -0.035029 -0.028063 -0.003089 -0.102945 -0.018328 -0.010083 -0.019779 -0.002297 -0.015722 0.013435 -0.069917 0.049480 0.022002 -0.017780 0.029977 0.006477 0.037032 0.006180 -0.030597 -0.033272 0.020190 -0.026954 -0.001574 0.015072 -0.016515
international-business-free-course-university-of-new-mexico.txt 0.499545 0.264001 -0.052315 -0.027526 -0.197623 -0.096123 -0.054134 0.042702 0.009255 -0.052718 -0.060184 0.021476 0.037663 0.061329 -0.006681 0.048217 -0.001684 -0.119506 0.003392 0.003006 -0.008693 0.052525 -0.016802 -0.057590 0.008440 -0.073893 -0.091538 0.016738 -0.036179 -0.057653 0.039084 -0.081968 -0.082068 0.033954 0.117359 0.035075 0.027088 -0.079286 0.006421 -0.034245 0.113707 0.048850 -0.016241 0.092855 -0.101007 -0.038686 -0.142248 0.166711 0.011308 -0.050675 -0.058501 -0.143582 -0.061214 -0.007308 0.007322 -0.019137 0.022497 -0.058080 0.060687 -0.085809 0.029539 0.034493 -0.001057 -0.004617 0.046132 0.060857 -0.074717 0.003982 -0.002712 0.061527 -0.047701 0.017442 0.058049 0.075769 -0.032831 -0.043256 0.015729 -0.023703 0.018552 -0.036397 0.003602 -0.032495 0.024488 0.095354 -0.000469 -0.028487 -0.015566 -0.049914 0.032567 0.032176 0.005354 -0.017711 -0.077615 -0.021863 -0.006716 -0.005205 -0.007918 -0.012768 -0.015378 -0.025129
introduction-to-philosophy-free-course.txt 0.346051 0.228572 -0.027464 0.004237 -0.151734 -0.031466 0.022341 0.014081 -0.011095 0.013982 -0.046614 -0.009442 -0.000016 0.009006 -0.019256 -0.021397 -0.010576 -0.089891 -0.016555 -0.034680 -0.030172 0.018933 0.039331 -0.018708 -0.012944 -0.016292 -0.007136 -0.001095 0.017126 0.046197 0.038025 0.029897 0.040001 -0.046093 -0.028073 -0.028796 -0.037050 0.003355 -0.024950 0.024661 -0.071828 -0.015904 0.033900 -0.040490 0.049935 -0.014108 0.001109 0.016475 -0.039731 -0.064873 -0.012842 -0.016613 0.023896 -0.112966 0.034490 0.022444 0.005236 -0.050768 -0.053956 -0.062370 -0.045628 -0.118580 0.097319 -0.132799 0.013059 0.021766 0.034689 0.066777 -0.006635 -0.082352 -0.116843 -0.001430 -0.020167 0.109856 -0.032317 -0.007388 -0.034726 -0.023715 -0.014884 -0.021335 -0.014340 0.001061 -0.038528 -0.131232 0.002641 0.156821 0.035140 0.021063 0.031347 -0.063022 -0.154931 0.035401 -0.091468 0.038160 -0.006268 -0.067942 0.039145 0.053538 -0.107809 0.031915
posco-asia-fellowship-in-south-korea.txt 0.149594 -0.127132 0.034168 0.374987 0.036659 -0.036316 0.069312 0.090343 -0.058525 0.005417 0.033963 0.048139 -0.077985 -0.007635 -0.015400 -0.023514 -0.062336 0.029656 -0.018890 0.010284 -0.028055 0.254986 0.088271 0.224036 -0.186288 -0.103824 -0.044597 -0.026576 -0.022443 -0.141644 -0.123707 0.121938 -0.122006 0.058580 -0.032942 -0.019108 -0.038882 0.020101 0.040415 -0.092810 0.029962 0.004771 0.039854 -0.044531 -0.015347 -0.013777 -0.036047 -0.011817 0.025181 0.027475 0.025446 0.034558 -0.036107 -0.058547 0.009928 -0.016744 0.017617 0.007701 -0.010635 0.006518 -0.051287 -0.046499 -0.024589 0.030909 -0.022293 -0.042814 0.001953 0.019693 0.051844 0.061844 0.094410 -0.001363 -0.010298 -0.017962 -0.009026 0.030918 0.059166 -0.010555 -0.034397 0.005948 0.003080 -0.005475 -0.031950 -0.006769 0.051547 -0.056010 -0.014998 -0.000086 0.068512 0.010668 0.012712 0.020805 0.063462 0.001408 0.038546 -0.044588 0.067691 0.028187 0.005128 -0.030287
john-thompson-scholarship-in-ireland.txt 0.227531 -0.195303 -0.087871 -0.052933 -0.062281 0.008547 -0.023378 -0.036336 -0.021217 -0.085407 0.042905 0.237467 0.065597 -0.176769 0.164380 -0.054424 -0.004680 0.104191 0.069020 -0.081756 -0.082663 0.035749 -0.054725 0.033290 -0.018597 0.049262 0.036167 -0.047456 -0.004540 -0.017298 0.009375 -0.100928 0.030192 -0.054445 0.058683 0.024992 0.076407 -0.013257 0.013965 0.058119 0.019681 -0.014508 -0.077229 0.038688 -0.090381 -0.010818 0.006415 0.031601 0.068260 0.020358 -0.021788 0.002633 -0.080636 -0.030801 -0.004752 -0.029044 -0.006150 0.006976 -0.066522 -0.009168 -0.031408 0.026659 0.098457 -0.036999 0.039484 -0.025053 0.024854 -0.044057 0.056725 0.048945 0.020517 -0.030502 0.032613 0.062634 -0.007674 -0.060394 0.017230 -0.062699 0.074188 0.014181 -0.085923 -0.041425 -0.007865 0.009441 0.045988 -0.004250 -0.014760 0.038918 0.037344 0.030415 0.065783 -0.015756 -0.104766 -0.046786 0.030081 -0.044890 0.019827 0.010219 -0.071006 -0.012942
tarbell-grants-for-journalists.txt 0.116103 -0.025990 0.038079 0.067869 -0.022707 0.110113 0.015511 -0.108207 0.051041 0.055285 -0.045230 -0.044317 0.001274 0.056895 0.074718 -0.125842 0.057569 0.043760 0.026999 -0.002213 0.083441 -0.024281 0.044904 0.041946 0.053725 0.042001 0.023388 -0.061410 -0.021989 0.047846 -0.056998 -0.126401 -0.000521 -0.041066 -0.022597 -0.103295 -0.007160 0.113033 0.017224 0.023006 0.148164 -0.019410 0.106600 -0.169616 0.031308 0.022503 0.049248 0.095545 -0.031143 0.023008 -0.042488 0.012888 -0.060554 0.086471 -0.027920 0.049740 -0.031716 -0.002054 0.047175 0.015261 0.113623 0.057891 0.169819 0.058264 0.122364 0.030924 0.114493 -0.164550 0.024237 0.038529 -0.078379 -0.100606 0.259072 0.192356 0.072558 0.063517 -0.018849 0.015249 -0.073508 0.265020 -0.022583 0.075099 -0.002659 -0.094780 0.058439 0.005560 -0.091907 0.018864 0.189959 -0.044780 -0.015956 -0.033329 -0.062005 -0.057682 0.067635 0.022387 0.040605 0.000057 0.046223 -0.137712
prompt-engineering-for-chatgpt-free-course.txt 0.330746 0.199039 -0.006157 0.020424 -0.167156 -0.016825 0.014645 -0.014875 0.025324 0.000989 -0.001655 -0.032543 -0.004496 0.019630 -0.025424 -0.018994 0.002222 -0.091358 -0.003005 -0.021949 -0.017166 0.023891 0.022175 0.023991 0.019921 -0.010964 0.010729 -0.008364 -0.001227 0.047414 -0.011670 -0.015217 0.004038 -0.026192 0.017343 0.000824 0.000525 0.014575 0.056257 0.046958 0.005314 -0.067120 0.015821 -0.006701 0.075342 -0.051387 -0.073586 -0.024016 -0.058217 -0.111722 -0.053066 -0.055105 -0.019080 -0.067654 0.046183 0.001077 0.037835 0.078732 -0.005517 -0.075775 0.016709 0.008369 0.053124 -0.065445 -0.086206 0.016593 -0.024917 0.058101 0.012146 -0.107440 0.060555 0.041848 -0.027544 0.049076 -0.030041 -0.003924 0.024481 0.036120 -0.093695 0.000731 0.002228 -0.084602 0.035493 0.104643 -0.033942 0.023394 0.030852 0.101410 0.040382 -0.189098 -0.020680 -0.165325 0.072531 0.040245 0.081327 0.040738 -0.047623 0.007064 -0.042300 0.003864
adb-japan-scholarship-program.txt 0.200696 -0.230292 -0.072769 -0.060634 -0.039733 0.029506 0.029830 0.018434 -0.145009 0.202214 0.208890 0.088011 0.033144 0.074912 -0.016485 -0.007340 0.014819 0.008864 -0.009291 0.003818 -0.022358 0.033952 -0.003226 -0.014163 0.036020 -0.018576 0.016664 -0.037459 0.003076 0.042943 0.023381 -0.072075 -0.006411 -0.014702 0.006864 -0.004182 0.017278 0.014994 -0.021307 0.014757 -0.038994 -0.043785 0.026636 0.020839 -0.012999 -0.240663 -0.099459 0.080668 0.126941 0.100031 -0.035429 0.029790 0.043318 -0.100591 -0.057419 0.034471 -0.097914 0.045234 -0.095956 0.013844 -0.016619 0.024409 -0.058094 0.079070 -0.043432 -0.007000 0.044977 0.020208 0.030728 0.000705 -0.086772 0.014703 -0.087592 0.011192 0.024766 -0.019426 0.054421 -0.071840 0.052996 0.077469 -0.022728 -0.010572 0.029550 -0.077768 -0.032256 0.017938 0.009667 0.021557 0.073418 0.031551 -0.054545 0.005122 -0.014535 0.046373 -0.003294 -0.008937 0.001332 -0.153550 -0.061727 0.009088
bucharest-summer-exchange-program.txt 0.171557 -0.128944 0.020135 -0.001069 0.020569 0.000210 -0.037997 0.000617 -0.009453 0.027482 -0.043688 -0.012341 -0.035990 -0.023013 -0.006746 -0.005303 -0.011488 0.033003 -0.104256 0.011896 -0.015449 0.064570 -0.053189 0.011197 -0.010802 -0.044504 -0.010883 0.056632 -0.040713 0.135997 0.083233 -0.065724 -0.015829 -0.000895 -0.055011 -0.041100 -0.027851 -0.027593 0.139317 0.100491 -0.000003 0.104224 -0.185586 -0.096559 0.124134 0.081575 0.136513 0.057671 0.072803 -0.105595 0.096191 -0.140994 -0.001226 -0.197213 0.036259 -0.178946 -0.134805 -0.126934 0.018377 0.105440 0.269214 0.014322 0.025987 0.033845 -0.038369 -0.134814 -0.066307 -0.085930 0.007166 0.077856 -0.034204 0.128518 0.004935 -0.031183 0.044817 0.004415 0.067021 0.070218 -0.006276 0.037598 0.053359 -0.048275 -0.039711 -0.036061 -0.002419 -0.079872 0.073373 0.043527 0.057635 -0.003937 -0.092292 0.077174 0.037090 -0.094025 -0.079986 -0.078080 0.072045 -0.042744 0.067762 0.052153
data-science-and-machine-learning-free-online-course.txt 0.297714 0.188206 -0.006856 0.003700 -0.080015 -0.023867 -0.027008 0.044286 0.025815 0.020614 0.005464 -0.019655 0.005115 -0.026878 -0.102307 0.009635 -0.004095 -0.014302 0.016688 0.030483 -0.057260 0.007627 -0.050205 0.029485 0.080729 -0.016362 0.140242 0.002195 -0.037823 0.047266 -0.017626 0.047188 0.023929 0.072056 -0.109557 -0.053020 0.038934 0.010552 0.096953 0.019719 0.107009 0.009596 -0.040867 0.112021 -0.093080 -0.003297 0.001221 0.039685 -0.012753 0.043969 0.044505 0.050969 0.019062 -0.059542 0.071609 0.011998 0.123104 0.104523 0.003408 0.019868 0.055812 0.003807 0.084871 -0.040947 0.106213 0.012665 0.041708 0.034109 0.037353 -0.023246 0.034166 -0.041806 -0.026118 0.012319 0.016822 0.026454 -0.059532 -0.137597 0.125850 -0.044514 0.166146 0.022335 0.068641 -0.004402 -0.005576 0.070729 0.042483 0.222881 0.009727 0.046764 -0.030960 0.053185 -0.076428 0.039782 -0.083795 -0.136472 0.093451 -0.062858 0.129196 -0.058699
oecd-internship-in-france.txt 0.153944 -0.143769 0.401401 -0.139389 -0.011859 -0.047145 0.085510 0.015846 -0.023853 -0.018708 -0.066540 0.003671 -0.033665 0.009203 -0.004120 -0.021127 -0.054230 0.005844 -0.006288 -0.005383 0.022118 -0.045500 -0.028695 0.004572 0.010824 -0.020701 -0.019795 -0.023284 0.001787 -0.034418 -0.026688 -0.004934 -0.020995 -0.054582 -0.008431 -0.010504 -0.002726 -0.031981 -0.037877 0.019140 -0.094590 0.015322 0.011801 -0.033458 -0.035554 -0.022074 -0.039865 0.047739 -0.033816 0.039270 -0.004068 0.037580 -0.026413 0.035983 0.027582 0.163398 0.007410 -0.005631 -0.053246 0.012816 -0.001069 0.076101 0.148724 -0.032906 -0.019872 -0.018844 -0.130652 -0.024194 -0.014151 0.116146 0.025141 -0.005465 0.013083 -0.113123 0.023100 0.027939 0.008261 -0.041423 -0.013583 -0.077479 0.078505 -0.013470 -0.194893 0.003551 -0.080727 0.003662 -0.003998 -0.102833 -0.082900 -0.047932 -0.112650 -0.000593 0.057591 0.024519 0.053502 -0.016299 0.034810 -0.016916 -0.065798 0.035797
leeds-university-mba-excellence-scholarship.txt 0.231126 -0.255401 -0.122665 -0.090556 -0.018695 -0.119739 -0.011685 0.074592 0.296431 -0.094511 -0.022564 0.113775 -0.003720 0.232890 0.238480 0.281463 0.144068 0.015271 -0.076413 0.105905 -0.052253 0.054585 0.252789 -0.009441 0.083255 -0.010036 -0.045462 0.040700 -0.077017 0.002271 0.028196 0.022007 0.002190 -0.062017 0.048188 -0.068210 0.073269 -0.006104 0.035975 -0.021098 0.050420 0.016605 -0.034885 0.003559 -0.032853 -0.034917 -0.031307 0.009156 0.007571 0.005841 -0.028745 -0.029643 -0.016368 -0.002202 -0.016364 -0.020235 0.006122 0.000806 0.006441 -0.069383 0.030691 -0.002198 0.038141 -0.040393 -0.034913 0.018784 -0.021323 -0.059288 0.009289 0.039122 0.021998 -0.047394 -0.069395 0.008106 -0.083390 0.057020 -0.046133 0.016035 0.044458 -0.000567 -0.017568 -0.015572 -0.027289 -0.024448 -0.052338 -0.025555 0.007599 -0.014541 0.009981 0.024722 0.029079 0.041387 -0.008200 -0.028832 -0.005300 -0.020300 -0.007222 0.005228 -0.014822 -0.007161
ifad-enhanced-internship-programme.txt 0.140735 -0.112177 0.333903 -0.107533 0.005611 -0.046551 0.090311 0.026978 -0.019787 -0.007916 -0.078590 0.003256 -0.006506 0.013491 -0.012417 -0.010900 -0.036887 -0.000310 -0.023746 0.011110 0.004119 -0.059715 -0.012190 0.004930 0.014630 -0.015325 -0.008506 -0.028578 0.035903 -0.049191 -0.021050 0.029194 -0.038923 -0.033178 0.014768 -0.071588 0.018774 -0.018554 -0.033655 0.022827 -0.087113 0.086020 -0.004429 0.009487 0.033877 -0.028663 0.003479 0.034700 -0.023945 -0.004244 0.022237 0.041263 -0.003443 0.048359 0.050217 -0.017778 0.069606 0.005664 0.046442 -0.037096 -0.038567 0.053039 0.116233 0.074122 0.012428 -0.020774 0.000687 -0.062764 0.027807 0.054405 0.028701 0.034668 0.076232 0.002268 -0.088908 0.103573 -0.013203 -0.028638 -0.060211 -0.022877 -0.006285 0.157474 0.054280 0.078405 0.054601 0.011781 0.108435 -0.030972 0.066007 -0.111936 -0.070703 0.049286 -0.071217 0.001003 0.093226 0.020364 0.000779 0.086297 0.061679 0.066204
online-leadership-development-program.txt 0.194401 -0.042149 0.037721 0.057484 0.057716 0.080332 -0.125156 -0.010004 -0.025858 0.015190 -0.022457 -0.008025 -0.038026 0.016266 -0.105353 -0.043457 0.132380 0.096734 -0.248462 0.137499 0.019725 0.144023 -0.078686 0.053121 0.033223 0.074305 0.023790 -0.155144 -0.011038 0.142859 0.124600 0.059880 0.059460 0.025047 0.222671 -0.085699 -0.082360 0.066223 -0.056639 0.026986 -0.038367 -0.045322 0.001786 0.015298 -0.161876 0.066985 0.040532 0.020424 -0.022373 -0.001090 -0.007101 -0.038390 0.096703 0.005210 0.142807 -0.030132 0.049200 -0.012126 -0.020017 0.041287 -0.056099 -0.018665 -0.022336 0.025821 0.005214 0.051112 0.021810 -0.010508 -0.045726 -0.014911 0.055541 -0.001810 -0.078687 -0.008063 0.045204 0.017421 0.025310 -0.014713 -0.005559 0.020389 0.005715 0.038167 -0.056351 0.024143 0.048432 -0.071505 -0.042215 0.006250 -0.072837 0.068938 0.089785 0.047680 -0.122567 0.009610 -0.013490 -0.055776 -0.083082 -0.029387 -0.030427 0.137946
google-project-management-course.txt 0.361674 0.197248 0.049027 0.075986 -0.140088 0.046039 -0.004634 -0.241303 0.122895 -0.006725 0.093187 0.085430 0.077158 -0.151578 -0.175861 0.213815 0.003724 -0.010012 -0.031276 0.032916 0.072277 -0.064137 0.069006 -0.031648 -0.066633 -0.092508 -0.047615 0.038587 -0.016711 0.000674 0.056930 -0.068150 -0.026724 -0.027888 -0.054171 0.023362 -0.075645 -0.035644 -0.060995 -0.085917 -0.050378 0.029183 0.124061 -0.073121 0.078445 -0.007650 -0.061703 0.141431 -0.111099 -0.057296 -0.095435 0.020423 0.113515 0.032059 0.088158 -0.055441 -0.000620 -0.098256 -0.053960 0.041857 0.014592 -0.067375 0.022571 0.028360 -0.085357 0.001533 -0.040671 0.072475 -0.032030 -0.051712 0.052047 -0.054654 -0.049019 -0.083334 0.018608 0.037034 -0.046389 0.017797 -0.055791 0.009056 -0.000553 -0.014432 0.098617 -0.030370 -0.027763 -0.063293 -0.022653 0.044554 0.009405 0.036125 -0.051302 -0.021302 0.013167 -0.043979 0.017087 -0.054229 -0.030975 0.033686 -0.034687 -0.051868
vice-chancellors-international-excellence-scholarship.txt 0.255304 -0.284603 -0.150016 -0.067310 -0.011108 -0.058569 -0.001549 -0.037959 0.030798 -0.020653 0.011040 -0.036230 -0.026766 -0.028435 0.081629 0.026415 -0.100402 -0.030568 -0.040761 -0.046755 -0.038914 0.056622 -0.149225 -0.165288 0.056522 -0.176821 -0.069625 -0.018000 -0.063715 -0.006758 -0.046626 0.002644 0.118143 -0.077393 0.097194 -0.091367 -0.008418 0.013047 0.070706 -0.111672 0.026460 0.002391 0.047968 -0.053755 -0.021127 -0.005283 -0.023299 0.002707 0.022825 -0.042683 0.001618 -0.019883 0.025818 -0.018011 -0.068806 -0.119531 0.008196 0.060828 0.073670 -0.078946 0.050791 0.016322 0.001995 -0.037922 -0.031284 0.044865 0.072566 0.023295 -0.067763 0.077500 -0.009863 -0.088467 -0.016899 0.004278 -0.016399 -0.025511 0.082371 -0.059638 -0.090320 0.012582 0.028622 -0.042582 0.017595 0.017407 -0.046079 -0.100285 -0.013221 -0.036541 -0.023113 -0.067546 0.211934 0.100542 -0.073875 0.020497 -0.006286 0.005617 -0.025003 0.090949 -0.050614 -0.017021
eso-science-communication-internship.txt 0.175300 -0.140090 0.390090 -0.115879 -0.014835 0.028136 0.061965 0.084355 0.014478 -0.033951 -0.060323 -0.016039 0.012135 -0.031688 -0.024361 0.012708 -0.045061 -0.052133 0.029073 -0.046868 0.000738 -0.099824 -0.003561 0.078328 0.065347 -0.035997 0.005430 -0.031640 0.001984 -0.028356 -0.001153 0.007481 -0.079794 0.066516 0.005985 -0.004375 0.022812 0.002060 0.048401 -0.011124 -0.033488 -0.048548 -0.005266 0.051680 -0.076993 0.024141 0.053889 0.004969 -0.001015 -0.078888 -0.070603 0.051685 -0.098853 -0.114904 0.015228 -0.044907 0.091472 0.090794 -0.005807 0.077206 -0.083421 0.011242 -0.048564 -0.123465 0.039806 -0.069028 0.005503 0.029682 -0.031654 0.112485 -0.062951 -0.120813 0.050685 -0.003275 0.069142 0.076288 0.000543 -0.023916 0.061898 0.085153 0.031442 -0.062371 0.042556 -0.048949 -0.098825 0.127508 0.001563 0.080747 -0.109822 0.074481 0.028249 -0.145802 0.010490 0.008379 0.062822 0.040634 -0.085236 0.077154 0.041783 -0.000115
global-software-development-free-course.txt 0.381520 0.228368 0.031542 0.002878 -0.153919 -0.009090 -0.045324 -0.010144 0.032556 0.052856 -0.009978 0.003756 -0.012151 -0.012876 -0.102687 0.026696 -0.064181 -0.099512 0.011354 -0.087674 -0.000319 0.142049 0.054765 0.037317 0.047048 -0.036155 0.026649 -0.022259 0.018289 0.007791 0.013087 -0.039274 0.008524 -0.065905 0.042912 0.012469 -0.032726 0.005161 -0.046924 -0.055312 -0.071632 -0.024369 -0.172388 0.014145 -0.010594 -0.139891 0.066069 -0.148530 -0.013762 -0.154412 -0.183915 -0.153838 -0.067305 0.188445 -0.013870 0.043695 -0.020318 0.107787 0.014543 0.003201 0.068949 0.166721 -0.020221 -0.025600 0.016397 -0.007809 0.077172 -0.008887 -0.016431 -0.116224 0.023035 0.014661 0.035974 -0.047102 -0.105423 -0.088706 0.048490 0.032959 0.130474 0.035360 -0.011571 0.006163 -0.036799 -0.065041 0.071345 -0.058607 -0.006179 -0.034987 0.043388 0.018282 -0.074518 0.094573 -0.078571 0.070684 -0.143404 -0.088321 -0.021209 0.040121 -0.051941 0.001092
kpmg-global-internship-program.txt 0.202145 -0.184325 0.376779 -0.098365 -0.011478 -0.014188 0.039774 0.021717 -0.036088 0.049134 -0.054371 0.009892 -0.032491 0.023038 -0.034687 -0.025632 -0.030363 0.024900 -0.063945 -0.005208 -0.003707 0.068673 -0.015373 0.024980 -0.025957 -0.019602 0.012400 -0.061310 0.012140 -0.033944 0.051460 -0.028557 -0.033234 0.000897 -0.020514 0.002284 0.000589 -0.048726 0.000500 -0.011979 0.008348 0.016886 -0.073800 -0.047091 -0.000984 -0.106093 0.007961 -0.004384 0.011429 0.026545 -0.003592 -0.046298 0.025250 0.086112 0.064100 -0.043991 0.003581 0.021351 0.029269 -0.019927 -0.047049 0.075814 -0.013599 0.019944 -0.027664 -0.010985 0.038992 0.027648 -0.036842 -0.028083 0.003627 0.018954 0.080668 0.048021 -0.005265 0.052386 -0.028071 0.014856 0.016695 0.011482 0.000167 -0.000900 0.080476 -0.019796 -0.032858 0.005441 0.025256 -0.080231 -0.124124 -0.046450 0.024800 0.024086 -0.064497 -0.013288 -0.045073 0.035930 -0.005277 -0.062973 -0.004691 -0.208530
nova-media-fellowship-program.txt 0.133907 -0.086966 0.094942 0.385132 0.006818 0.001208 -0.031575 0.056173 -0.012146 -0.065726 0.035317 0.137507 0.011529 0.006587 0.080571 -0.041518 0.002678 -0.018307 0.010322 -0.011406 0.121662 -0.030425 -0.030079 0.009693 0.055630 -0.022974 0.014213 0.019580 -0.047209 0.013447 0.016297 0.001606 -0.055038 -0.055477 -0.049384 0.032844 -0.081030 0.004104 0.005550 -0.106364 0.029548 -0.090100 0.026259 -0.063970 0.117424 -0.061917 0.065714 0.032131 -0.159272 0.031311 0.013926 0.019040 -0.009045 0.012256 -0.043145 0.019915 -0.110192 -0.014075 0.047179 0.073101 0.034148 0.025168 -0.004858 0.025084 0.133258 0.051534 0.016810 -0.075370 -0.030718 0.045904 0.037998 -0.034227 0.105642 0.007813 -0.021508 0.045232 -0.098846 -0.120045 -0.018771 -0.025460 0.037069 0.038685 -0.009784 -0.066562 0.107899 0.018546 0.039112 -0.021589 0.025489 -0.066567 0.044652 -0.067085 -0.075798 -0.019006 0.041728 -0.038615 0.050251 -0.138621 -0.046356 -0.006413
social-psychology-free-course-by-wesleyan-university.txt 0.343474 0.204785 -0.007074 0.007381 -0.145764 -0.041189 -0.094696 0.024387 -0.044419 -0.041520 -0.046868 0.030625 0.069860 -0.016394 -0.004803 -0.024754 0.014773 -0.120635 -0.041090 -0.043109 0.217751 -0.032089 0.039601 -0.005416 0.097876 -0.205610 0.065502 0.165512 -0.047259 0.042664 0.193399 0.138690 -0.166464 -0.115509 -0.121390 -0.147158 -0.243942 0.088261 0.017004 0.109411 -0.113619 -0.048755 0.058143 0.060724 -0.067703 0.067302 -0.062044 -0.023880 0.237629 0.211093 0.145419 -0.013274 -0.067277 0.131523 -0.029804 -0.082960 0.074379 -0.004990 -0.007899 -0.057184 -0.012142 0.103401 -0.010798 -0.002085 -0.057587 -0.047815 -0.012812 0.029306 0.089586 -0.011281 -0.037764 0.019919 -0.002557 0.064764 -0.003639 -0.031079 0.010645 0.068783 -0.045375 0.016359 -0.027222 0.003928 0.006339 0.031584 0.002632 0.019149 -0.042231 -0.026096 0.013182 -0.047272 0.009981 0.019218 0.036311 -0.003846 -0.030301 0.051059 0.004066 0.031901 0.015502 0.008237
eliza-moore-fellowship.txt 0.128572 -0.108131 0.106074 0.452878 0.020570 -0.015820 0.033697 0.089957 0.012563 -0.042701 0.034273 0.083182 -0.082902 0.055269 0.038977 0.019905 -0.035326 -0.033607 0.050405 0.000397 -0.033940 -0.019313 -0.012422 -0.034935 0.008214 -0.002663 0.035100 -0.008365 0.001631 -0.020908 -0.001412 0.025783 0.053136 -0.100762 0.002233 0.047208 -0.062516 -0.065435 -0.003651 -0.068445 0.030400 -0.062424 0.019109 -0.076320 0.008172 -0.001701 0.045125 0.026686 0.032141 0.013836 -0.015621 -0.081790 -0.079835 -0.063136 -0.042413 -0.038371 -0.017677 0.017376 0.024308 -0.021376 0.057041 -0.005280 -0.015477 -0.039425 -0.028786 -0.081604 -0.012179 0.021756 0.024937 0.022487 0.002840 0.020188 0.019164 0.014043 0.013984 0.014244 -0.032695 -0.032907 0.013908 -0.018883 0.049545 0.016636 0.022473 0.062829 -0.001351 0.004360 -0.005589 -0.034133 -0.069093 -0.036233 -0.000159 0.018833 0.014474 0.010942 0.030918 -0.002438 -0.065120 0.083983 0.059958 -0.022139
friedrich-ebert-stiftung-scholarship-in-germany.txt 0.187382 -0.216837 -0.086427 -0.035388 -0.023834 0.056099 0.012333 0.023709 -0.029956 -0.017638 0.013518 0.043624 -0.043295 -0.054859 0.012934 0.003186 -0.012196 -0.016244 -0.002474 -0.054987 -0.017830 -0.015424 0.053030 0.161397 0.024150 -0.075284 -0.055024 -0.006415 0.002225 -0.058750 0.000038 0.007457 -0.021357 0.003516 -0.005618 -0.007382 0.013451 0.034896 -0.022504 0.024603 -0.069453 0.005443 0.015437 0.025108 -0.047647 0.009795 0.045077 0.047734 0.010041 0.020541 0.013114 -0.026346 0.059521 0.008974 0.024055 -0.032995 -0.113594 0.154957 -0.044570 0.049567 -0.118261 -0.018891 -0.047432 -0.084391 0.011700 -0.052873 0.026836 0.111526 -0.058476 0.024206 0.061399 -0.098265 0.090637 -0.027445 -0.037071 0.020437 0.125268 -0.084449 0.148461 0.009606 -0.175114 -0.070984 0.153931 0.038612 0.055161 -0.117938 0.045729 -0.120162 -0.050971 -0.117019 -0.183618 0.221808 0.109483 -0.029533 0.135897 -0.128213 0.011013 0.043646 0.234858 0.061139
brower-youth-awards.txt 0.129845 -0.081073 0.060673 0.099433 -0.001948 0.109199 -0.177221 -0.031439 0.018797 0.060919 -0.078246 0.021283 -0.002774 0.018368 -0.069073 -0.030933 0.089419 0.041538 -0.167409 0.062447 0.087400 0.117471 -0.015288 -0.031587 0.032811 0.041434 0.040264 -0.180995 -0.082665 0.059993 0.063012 0.044211 0.165686 0.111022 0.187340 -0.041991 -0.120938 0.003033 -0.191701 0.016081 -0.091479 -0.008287 -0.009509 0.031928 -0.128929 0.133759 -0.129831 0.049544 -0.106029 -0.255435 0.175705 0.091937 -0.209298 0.019764 -0.004509 0.010378 -0.038764 0.037910 -0.052014 -0.002904 0.022674 -0.041148 0.006338 0.065701 -0.066423 -0.018443 0.004055 0.024260 0.080589 -0.030929 -0.036217 -0.014960 0.032479 -0.037693 -0.000775 0.032346 -0.022872 0.036871 0.049792 0.019193 0.073392 -0.055285 0.039715 -0.055628 -0.021630 -0.038271 -0.074044 -0.029484 0.008346 -0.052446 -0.016530 0.015055 0.053868 0.027267 -0.023904 -0.030118 -0.033207 -0.054526 0.033703 0.002766
react-native-developer-job.txt 0.126803 -0.040096 0.183883 -0.009412 0.018751 0.058860 -0.295340 -0.074492 0.098748 -0.222759 0.473690 -0.268619 -0.076743 0.100870 0.077006 -0.054697 -0.186133 -0.098723 0.131635 -0.072670 -0.206633 0.072545 0.069066 -0.087736 -0.075216 0.017760 0.090526 -0.007419 0.044155 0.025758 0.072668 -0.013799 -0.058215 0.022869 0.071393 -0.052262 -0.023242 0.035843 -0.061821 0.010007 -0.011282 -0.094140 0.039699 0.022994 0.010030 0.025650 0.065444 0.029985 -0.015849 -0.029107 0.044149 0.111511 0.054622 0.102516 0.072909 -0.104207 -0.010279 -0.036081 -0.038273 -0.167399 0.098882 -0.095802 -0.060056 0.093721 0.006965 -0.027593 -0.100388 0.003927 0.003219 0.170604 -0.122417 -0.019077 0.037992 0.010057 0.004045 -0.015544 -0.023301 -0.009483 0.089914 -0.035190 -0.054284 -0.005707 -0.011883 0.050405 -0.030064 0.037215 0.022346 -0.038365 -0.000448 -0.018329 0.003927 -0.029834 0.004253 0.029158 0.010962 -0.015950 0.001905 0.029319 -0.015791 -0.010136
lester-b-pearson-scholarship-in-canada.txt 0.211262 -0.220063 -0.121894 -0.004699 0.000549 -0.034034 0.014858 0.001822 0.023185 -0.012262 0.002250 0.044877 -0.033882 0.005015 0.042627 0.042000 -0.029622 -0.025054 0.007640 -0.019201 0.015764 0.002217 -0.067175 -0.083125 -0.027693 -0.085340 -0.032702 -0.128205 -0.079228 -0.053174 0.082035 -0.046986 -0.020315 0.056189 -0.188928 0.195764 0.004466 -0.021443 -0.151438 0.230127 -0.015258 0.082394 0.105445 -0.057648 -0.105732 0.037944 0.078697 -0.010165 -0.088952 -0.018889 -0.066599 -0.069028 0.133968 -0.028665 0.015609 -0.120090 0.042904 0.190412 -0.083181 0.034728 -0.033689 0.037145 0.109379 0.168795 -0.132597 0.235330 0.027246 -0.079178 0.148621 0.015696 0.003194 0.047529 0.009215 0.013021 -0.059594 -0.114273 -0.099140 0.041493 0.118948 -0.012192 0.015405 0.013684 -0.080407 0.090129 0.082533 0.062256 -0.039593 0.006633 0.024528 0.033341 0.008597 0.019735 -0.029565 0.029221 0.094965 -0.036233 -0.010176 0.016988 0.052661 0.015081
amazon-data-engineer-internship.txt 0.205139 -0.130306 0.496261 -0.167127 -0.036544 -0.038340 0.082384 0.000680 0.144759 -0.063204 -0.041501 0.076092 0.055850 0.061788 -0.054400 0.025498 -0.121842 -0.028951 0.088867 -0.088643 -0.054047 0.004091 -0.041889 0.070814 0.069054 0.126392 0.120431 -0.007603 -0.155207 0.016506 -0.125000 0.151052 0.070257 0.170492 0.017365 0.022660 -0.072841 0.015703 0.059832 0.022645 0.111328 -0.111807 0.201129 0.102139 -0.014926 0.067946 0.004242 0.019392 0.096956 -0.031087 0.070521 -0.025318 0.139513 -0.046109 -0.047367 0.061636 -0.029196 -0.060372 0.081463 0.047251 0.036972 0.071229 0.016425 0.036292 0.003873 0.029531 0.057876 -0.013105 0.018709 -0.032514 -0.033626 0.053347 -0.015368 -0.034298 -0.008499 -0.078038 0.021085 -0.007258 0.027643 -0.014425 0.030516 -0.009469 -0.006661 0.035756 0.050210 -0.024874 -0.032936 -0.026134 0.010970 -0.026491 -0.014370 0.025890 -0.013663 0.022791 -0.019216 0.029232 0.018772 -0.010188 -0.015551 0.002728
ethical-hacking-free-online-course.txt 0.313289 0.228226 -0.028852 -0.006137 -0.106140 -0.043972 -0.006659 0.059479 -0.036983 0.000352 -0.021855 -0.023006 -0.006223 -0.000275 -0.064888 0.009533 0.001177 -0.038974 0.014355 0.003748 -0.027608 0.007518 0.026191 -0.027506 -0.003569 -0.022388 0.007873 -0.007153 0.017886 -0.005028 0.049712 0.022221 0.005333 -0.024473 -0.027264 -0.006272 -0.010883 -0.007082 0.035109 0.013489 0.009811 0.012566 -0.005112 0.013427 -0.079145 0.009568 -0.009115 0.002742 -0.005772 0.007580 -0.054022 0.005417 -0.041752 -0.013120 0.045990 0.022297 -0.029077 0.073610 0.024967 -0.004255 0.062236 -0.032138 -0.042042 0.013181 0.035768 0.014245 -0.004437 -0.060243 -0.003792 -0.036469 -0.093235 -0.022588 -0.000251 -0.056415 0.088330 0.039331 -0.031416 -0.168089 0.035693 -0.108309 0.058858 0.021267 0.002578 -0.020137 0.027359 -0.044229 0.116056 0.078466 -0.059919 0.029682 0.063671 0.089035 -0.037692 0.045008 0.090778 -0.066615 0.212770 0.036410 0.142929 -0.107367
taiwan-aid-ngo-fellowship.txt 0.155233 -0.105656 0.127777 0.454316 -0.006387 -0.024079 0.069696 0.101508 -0.047032 -0.033863 0.031305 0.108698 -0.062456 0.040301 0.003742 -0.012651 -0.063483 -0.016955 -0.032808 0.064491 -0.015353 0.043782 -0.002073 0.022994 -0.213576 -0.085912 -0.156603 0.286213 -0.072819 0.304226 0.064660 -0.076031 0.077593 0.051414 -0.004941 -0.044369 0.127770 0.037075 -0.013958 -0.029877 -0.011378 -0.032892 0.048268 0.100061 0.037117 -0.017078 -0.024475 0.028002 -0.012904 -0.032235 -0.017304 0.055879 0.058298 0.004495 -0.059699 0.026130 0.049207 0.024854 -0.023778 0.006604 -0.056788 -0.003396 -0.002589 -0.007697 -0.046805 0.025818 0.006168 0.010193 -0.000905 -0.003976 -0.004092 -0.024486 0.003917 -0.016564 0.022090 0.009982 0.025800 0.007518 0.015773 0.019116 -0.052924 0.001020 0.003579 0.004510 0.013199 0.006008 -0.030759 0.016818 0.008135 -0.052295 -0.014166 0.015150 -0.003040 -0.011109 -0.001959 0.020894 0.017351 -0.004518 -0.000975 -0.035496
insait-graduate-research-fellowship.txt 0.169406 -0.152619 0.099965 0.517795 0.031185 -0.051302 0.084202 0.086172 -0.009233 0.007575 0.007073 -0.008017 0.004134 0.003729 0.015505 -0.025291 -0.002760 -0.012335 0.065882 -0.023193 -0.049599 0.015387 0.016232 -0.024404 0.031094 -0.003751 0.028046 -0.025330 -0.034111 -0.044221 0.010155 -0.008456 -0.046066 0.017061 -0.010899 0.061366 -0.046919 0.012704 -0.013785 0.026235 0.030708 -0.092031 -0.032686 0.006241 0.002195 -0.042158 -0.010833 -0.051355 0.039485 0.011515 -0.011730 0.074757 -0.024297 0.008202 0.056464 0.007559 -0.022249 -0.034758 -0.008153 0.010169 -0.022894 -0.040543 -0.025347 -0.136692 0.027660 -0.091200 -0.034362 0.024338 -0.043143 0.031909 0.023304 0.006034 0.019721 -0.089554 0.033298 -0.028773 -0.038365 0.005906 -0.062928 -0.006994 0.032179 0.054892 -0.011540 0.080397 -0.019128 -0.021814 0.046978 0.045329 0.006122 0.006763 0.017785 0.079749 -0.027497 -0.005713 0.008897 -0.007208 0.040546 0.044929 0.006496 0.054112
ruby-on-rails-developer-job.txt 0.111782 -0.038338 0.165579 -0.008020 0.026237 0.055521 -0.273248 -0.068446 0.096326 -0.206417 0.443616 -0.257559 -0.072836 0.095639 0.066495 -0.055682 -0.177315 -0.088990 0.129098 -0.076887 -0.208002 0.078533 0.066980 -0.088645 -0.070928 0.012717 0.096258 -0.009074 0.044118 0.028848 0.079964 -0.023092 -0.067157 0.024013 0.071631 -0.052184 -0.028948 0.034829 -0.054452 0.009084 -0.010617 -0.100303 0.037453 0.033238 0.002057 0.026846 0.072287 0.034619 -0.025671 -0.034192 0.039752 0.126096 0.055405 0.123169 0.082460 -0.119225 -0.011081 -0.038365 -0.045227 -0.187551 0.109974 -0.104580 -0.069882 0.105909 -0.000776 -0.024587 -0.111644 0.011557 0.009140 0.188366 -0.133174 -0.023451 0.046463 0.007354 0.010530 -0.008651 -0.020723 -0.009630 0.106153 -0.042664 -0.068036 -0.003370 -0.013729 0.065164 -0.032637 0.033365 0.028500 -0.041197 0.003326 -0.030547 0.000577 -0.030585 0.008943 0.036441 0.001399 -0.020474 0.003587 0.039313 -0.024773 -0.013110
humboldt-research-fellowship-in-germany.txt 0.170252 -0.161434 0.095487 0.538270 0.039981 0.015716 0.106526 0.151936 -0.048676 -0.038748 -0.021553 -0.006642 0.033188 -0.012501 0.036099 0.020369 -0.010624 -0.026856 0.087978 -0.023796 -0.067697 -0.078713 0.067088 0.037257 0.060476 -0.003449 -0.024529 0.005984 0.039461 -0.025564 0.022575 0.029360 -0.014219 0.048695 0.041708 0.046428 -0.056904 0.006646 0.026228 -0.044411 -0.006530 -0.031613 0.001841 -0.011032 -0.045786 -0.016969 -0.004268 0.003590 0.014457 0.010394 -0.002473 0.000700 0.011169 0.024918 0.045159 -0.041253 -0.067963 0.070069 -0.019370 0.050938 -0.067338 0.001486 -0.025868 -0.106115 0.029033 -0.071537 0.001354 0.071606 -0.012496 0.043730 -0.025047 0.016152 0.035251 -0.015087 0.037419 0.004734 0.025047 -0.040070 0.028268 0.006181 -0.067311 -0.005174 0.039898 -0.009488 -0.067770 -0.044379 0.028086 -0.013891 0.008664 -0.046761 -0.039177 -0.003790 -0.029115 -0.003554 0.025154 -0.009773 0.038519 -0.031216 -0.012264 0.027358
free-online-internships.txt 0.253413 -0.036843 0.303983 -0.094542 0.075993 0.009346 0.042086 0.002949 -0.039299 -0.058435 0.005678 -0.028798 -0.059263 0.008171 0.017619 -0.036758 0.035879 0.024630 -0.022465 0.059614 0.027547 0.012532 -0.016367 -0.039320 -0.053039 0.002320 -0.009448 -0.042686 0.076649 -0.038142 0.026214 0.008781 0.065457 -0.067075 -0.037989 0.027124 -0.016822 0.028223 -0.025667 -0.045463 0.033698 -0.011803 -0.000021 -0.031182 -0.054686 0.069012 0.003314 0.009285 -0.068368 0.174254 -0.030831 -0.003097 -0.072783 -0.048331 -0.059958 0.105871 0.047402 -0.014830 0.024298 -0.041178 0.015461 0.097092 -0.153570 -0.010630 0.059267 0.112449 -0.005900 0.045588 -0.013417 -0.101452 -0.080948 0.052809 -0.090328 0.006345 0.016815 0.001654 0.020130 -0.053742 0.081800 -0.047617 -0.032749 -0.080846 -0.024138 0.009682 -0.078690 -0.036829 0.000634 0.021527 0.198700 0.068177 0.045330 0.082321 -0.087934 -0.080910 -0.065359 -0.060297 -0.067151 0.087335 0.027870 0.031503
brand-management-course.txt 0.358859 0.168066 -0.024815 0.006506 -0.161717 -0.070977 -0.058806 -0.029563 0.028570 -0.083513 -0.012008 0.099931 0.108449 0.003597 -0.013669 0.032656 0.030550 -0.083641 -0.019643 -0.000284 0.014996 -0.008528 -0.020161 0.004882 -0.092405 -0.012205 -0.015571 0.056857 0.105084 0.033837 0.001134 -0.078182 -0.077306 0.033895 -0.023449 0.017907 -0.096149 -0.042483 0.023203 -0.014624 -0.026542 -0.067634 0.049745 -0.031488 0.112130 -0.036922 -0.154722 0.187218 -0.130029 -0.146593 -0.025242 -0.040939 0.127471 -0.036463 0.066638 -0.008996 0.024064 -0.111732 -0.007708 -0.074823 -0.006960 -0.032781 0.038699 0.002558 -0.010984 -0.017918 -0.084630 0.050168 -0.062128 -0.019458 -0.001464 0.004433 -0.059766 -0.044688 0.037138 0.067038 -0.070078 0.019113 0.010838 0.055141 0.022467 -0.006360 0.141077 -0.006648 -0.069607 -0.050913 -0.077888 0.045704 0.055081 0.060421 -0.038996 0.035975 -0.101137 -0.037276 -0.004581 -0.033627 -0.054644 0.122176 -0.032268 -0.077031
free-toefl-test-preparation.txt 0.167423 0.029011 0.012972 -0.004745 0.052051 -0.014219 -0.090313 0.038680 -0.125005 -0.057940 0.029710 -0.126156 -0.165073 0.053716 -0.028814 0.153589 0.000349 0.382782 0.134094 -0.140287 0.130133 -0.003417 -0.011113 0.030639 0.012317 -0.017485 0.012165 0.087391 0.064589 0.116613 -0.096945 0.119690 0.033448 -0.062378 0.022676 0.044081 -0.032089 -0.000025 -0.110246 0.081621 0.097923 0.084007 0.036693 -0.064886 -0.013590 0.013088 -0.130648 -0.008768 -0.058447 0.011046 0.000929 -0.146563 0.023534 -0.105984 0.063923 0.124699 0.036250 -0.009935 -0.003593 0.039797 -0.083456 0.022964 -0.067239 -0.133518 0.016434 0.033967 -0.106856 -0.110344 -0.118311 0.095392 -0.113129 -0.102581 0.061117 -0.006164 -0.175498 -0.008120 0.062252 0.100484 -0.021965 0.063351 0.091285 0.010272 0.092952 0.000076 0.059169 -0.023521 -0.003792 -0.019085 0.002471 -0.027658 -0.029184 0.049246 0.127742 0.007120 0.023444 -0.022984 -0.014733 0.018715 -0.071890 -0.046695
epfl-excellence-fellowships-in-switzerland.txt 0.189094 -0.188658 0.017287 0.198464 0.014591 -0.037882 0.035306 0.016687 -0.008051 -0.043550 0.007573 0.030625 -0.073621 -0.008199 0.060894 0.024656 0.034876 -0.022104 -0.047264 -0.014681 -0.024557 -0.011351 -0.044171 -0.055862 0.048416 -0.041216 0.026127 -0.057012 0.084623 -0.031287 -0.012037 0.037548 0.023876 -0.270648 -0.079158 -0.153364 0.206815 -0.166007 -0.000417 -0.123037 0.084477 -0.142342 0.060689 -0.087982 -0.130082 0.031145 -0.108765 -0.149916 0.029251 -0.080930 0.064381 -0.023981 0.102737 -0.064352 -0.127836 -0.110829 0.057166 -0.061770 0.046126 -0.056157 0.167796 -0.022908 0.033179 0.000347 0.027941 0.077222 -0.011228 0.050362 -0.007033 -0.000529 0.035253 -0.073878 -0.027909 -0.055029 0.024224 -0.076675 0.077080 0.007174 -0.009966 0.050897 -0.068887 -0.036470 0.043434 -0.045346 0.080515 0.001462 0.063959 -0.029922 0.030181 0.075556 -0.053288 0.005944 0.002763 0.104315 -0.034244 0.085395 -0.037689 0.015086 0.060087 0.029109
global-peace-photo-award.txt 0.101068 -0.056167 0.050289 0.054013 0.015928 0.087522 -0.262293 -0.150389 0.009538 0.217767 -0.191139 0.071240 -0.054124 0.025285 0.069096 0.011124 -0.062350 -0.012634 0.080145 -0.093364 -0.049823 -0.079792 0.128715 -0.049704 -0.128338 0.000235 -0.129380 -0.194660 -0.065966 0.085624 -0.142599 -0.066058 0.032273 -0.043597 -0.063486 -0.081616 -0.164250 -0.101373 -0.016563 -0.077347 -0.028073 -0.055520 -0.096847 0.302080 -0.042669 -0.214042 0.224271 -0.074611 -0.119280 0.076590 0.195594 -0.157425 0.018499 -0.012987 -0.023018 0.024100 0.031437 -0.036963 0.088154 -0.025218 -0.030671 -0.074722 0.001717 -0.057135 0.003440 0.088976 -0.099241 -0.040141 0.011283 -0.017984 -0.049506 -0.012217 0.010345 0.055683 0.037650 -0.002061 -0.030016 0.005235 -0.071673 -0.041298 -0.007605 0.031344 0.027220 0.000684 -0.011650 -0.023471 -0.040481 0.034516 0.015302 -0.026631 -0.004157 0.001617 0.022387 0.040583 -0.007924 -0.000853 -0.003350 0.016873 0.030198 0.018704
daad-epos-scholarship.txt 0.237158 -0.202165 -0.097773 -0.049838 0.003586 0.072751 0.037047 0.045180 -0.064754 -0.033297 0.027551 0.010639 -0.089132 -0.092071 0.044439 0.061141 -0.070758 -0.023217 0.062424 -0.178368 -0.051323 -0.216148 0.085689 0.299124 0.204296 -0.112049 -0.211441 -0.167188 0.241856 0.139900 0.323989 -0.017371 0.100099 0.333480 -0.022287 0.031442 -0.038789 0.033456 0.005704 -0.200906 0.078443 -0.047193 -0.093483 -0.099741 0.003958 -0.011030 -0.079652 -0.125505 0.011197 0.038594 0.014871 0.016363 -0.017828 -0.011995 -0.043424 0.039359 0.067355 -0.080811 -0.019598 -0.065036 0.044561 -0.009852 0.048407 0.073195 -0.012344 0.023110 0.006128 -0.022137 0.006835 -0.008921 0.023710 0.048294 -0.021863 0.003244 -0.010099 -0.013246 -0.022868 0.014390 -0.054252 -0.003226 0.025551 0.023474 -0.013706 0.016733 0.029445 0.020444 -0.001532 -0.011617 -0.014789 -0.008269 0.011040 0.011508 0.008595 0.005589 0.015991 -0.012092 0.002637 0.019065 0.009914 0.003823
mofa-taiwan-fellowship.txt 0.144493 -0.143688 0.105934 0.412830 0.021774 -0.052625 0.081345 0.081870 -0.052425 0.007906 0.014066 0.011375 0.016497 0.010673 0.038087 -0.018079 -0.049831 -0.012439 0.012472 0.062101 -0.009947 -0.003039 -0.008972 0.013452 -0.161293 -0.052984 -0.161521 0.299653 -0.094850 0.330932 0.032529 -0.112577 0.090418 0.049360 -0.010718 -0.035145 0.154743 0.070817 -0.018380 0.004284 0.006268 0.025530 -0.005505 0.091478 -0.039546 0.049407 -0.001640 -0.039709 -0.007134 -0.022039 -0.020332 0.049648 0.026018 0.098780 -0.079298 0.069386 0.034290 0.015077 0.021689 -0.003237 -0.080643 0.028932 -0.014967 -0.006891 0.034640 0.050146 0.014302 -0.018673 0.031511 -0.040588 -0.028893 -0.057416 0.005572 -0.029027 0.022571 -0.024289 0.034365 0.001528 0.029505 0.002170 -0.011700 0.035446 -0.012001 -0.003336 -0.010739 -0.013569 0.001223 0.010100 -0.015117 0.023015 -0.010118 0.009154 0.002052 0.040035 0.007555 -0.003813 0.001377 0.002585 -0.004896 0.038156
university-of-south-australia-scholarships-2.txt 0.280548 -0.283942 -0.100630 0.055092 0.016479 -0.145727 0.009042 -0.087588 -0.026507 0.030336 -0.078354 -0.331205 0.293849 -0.118227 0.038169 -0.082603 0.074939 0.052925 0.059177 0.062543 -0.001710 0.078598 0.102821 0.098956 -0.100674 -0.007311 -0.005153 0.052169 -0.045855 -0.048918 0.022772 0.152296 -0.035494 0.053116 -0.009536 0.080629 -0.002627 -0.069947 -0.056941 -0.118815 -0.016842 0.013466 0.003007 0.053385 0.008283 0.018255 0.026949 0.019855 -0.000360 0.025874 -0.006717 0.007518 -0.017176 -0.074024 0.026977 0.007198 -0.022724 0.072040 -0.001765 -0.000579 0.005439 0.012931 0.068584 0.018450 -0.022172 0.004434 -0.012537 -0.029493 0.021883 -0.027239 0.002992 -0.019959 0.009843 -0.049556 -0.013235 -0.012194 0.016293 0.038139 -0.010630 -0.013642 -0.024165 -0.051269 0.018970 0.016533 0.033292 -0.041190 0.014465 -0.047263 0.042304 0.012041 -0.054562 0.001827 0.017499 -0.008622 -0.018173 0.018786 0.042622 0.026962 0.046840 -0.023257
introduction-to-statistics-free-course.txt 0.335659 0.204161 -0.014713 0.010077 -0.136535 -0.032346 0.014062 0.003101 0.008633 0.019096 -0.032017 -0.008421 0.007169 -0.015251 -0.046310 -0.003523 -0.016425 -0.112724 -0.026616 -0.047308 -0.036353 0.027014 0.033562 -0.009676 0.000185 0.004136 0.009339 -0.001163 0.004646 0.070084 0.009866 0.069129 0.075008 -0.036459 -0.044673 -0.028462 -0.023145 0.003154 -0.001715 0.028009 -0.063480 -0.028392 0.048886 -0.039373 0.100704 -0.032261 -0.011585 0.044584 -0.044799 -0.084156 -0.021461 0.001263 -0.015507 -0.116625 0.085350 -0.044624 0.015413 -0.158761 -0.110616 -0.091757 -0.096976 -0.125590 0.254618 -0.203844 0.063778 0.102072 0.204689 0.110388 -0.024357 -0.149123 -0.140315 0.000097 -0.007608 0.094202 -0.005124 -0.014761 0.019284 -0.081502 0.161920 -0.043142 0.016013 0.146953 -0.103958 -0.022695 -0.010982 -0.009176 0.107874 -0.138592 0.030773 0.003943 0.081161 -0.008813 0.109367 0.020642 0.029182 -0.019151 0.022662 -0.019491 0.031254 0.071878
graphic-design-essentials-free-course.txt 0.302724 0.198550 0.002100 0.004719 -0.120339 -0.024033 -0.053378 0.023097 -0.008689 0.002583 -0.005857 -0.013885 -0.010821 0.008356 -0.043121 0.002039 -0.041695 -0.139010 0.030033 -0.078761 -0.024237 0.040900 0.072267 -0.020019 0.044338 0.036821 0.051313 -0.034047 -0.013636 0.080436 -0.000776 0.032369 0.033393 -0.091158 0.007072 0.053685 0.004909 -0.009608 -0.046549 -0.038741 -0.089243 0.090596 -0.082840 -0.078650 -0.099944 0.031646 0.048224 -0.107648 0.008059 0.023881 -0.107600 0.018342 -0.006070 -0.036757 -0.138816 0.092885 -0.096025 -0.091248 0.319867 0.237442 -0.136035 -0.134627 0.105532 0.209259 -0.057491 -0.089809 0.028417 0.090471 -0.025561 0.118160 -0.035848 0.006956 -0.112328 0.010780 -0.080251 0.049212 0.008359 0.068306 0.090478 0.079466 -0.008691 0.010674 0.042942 0.123486 -0.109281 0.015953 0.038790 0.047173 0.055356 0.004031 0.069428 -0.004668 0.037257 -0.022661 0.063467 0.055224 -0.023171 -0.024020 -0.004430 -0.025340
fellowship-programs.txt 0.077943 -0.080829 0.062271 0.446648 0.033066 0.003532 0.025704 0.111387 -0.033603 -0.052152 0.055965 0.104787 -0.089404 0.045049 -0.004809 -0.018491 0.035349 0.000368 -0.095722 0.058021 0.052570 -0.005325 -0.070024 -0.012526 0.029488 0.057534 0.009910 -0.077948 -0.048899 -0.014874 -0.020884 0.142992 0.073759 0.063108 0.153500 0.027843 -0.106134 -0.077529 -0.101270 -0.037278 -0.088780 -0.000535 -0.021829 0.094828 -0.140467 0.068684 -0.050158 0.024764 0.035895 -0.141477 0.084936 0.040468 -0.162155 0.073547 0.154963 0.135984 -0.036452 0.004353 -0.114117 -0.014099 0.039693 -0.124773 0.031160 0.110846 -0.075822 -0.035267 0.084887 -0.027494 -0.075483 -0.022758 -0.013256 0.039058 0.006101 0.035647 0.017390 0.008036 0.055672 0.051426 0.014851 0.017538 0.021364 0.021645 0.052913 -0.064355 -0.036746 -0.045752 -0.030374 -0.015589 0.039826 0.005404 -0.046671 0.045350 -0.018855 -0.014675 -0.068322 0.039143 0.038563 -0.007634 0.018007 0.052147
free-online-chinese-course.txt 0.443763 0.288145 -0.067986 -0.014437 -0.168358 -0.080293 0.029934 0.045795 -0.082982 -0.008043 -0.026631 -0.033271 -0.061789 -0.069529 0.010525 0.049812 -0.101720 -0.087891 -0.184919 0.022037 -0.032136 -0.087724 0.103886 -0.095944 -0.080766 0.237458 -0.015246 0.061304 0.004451 -0.026148 -0.010904 0.016967 -0.033545 0.042980 -0.003743 -0.042385 -0.053031 0.075660 -0.048122 -0.087012 0.006978 0.049764 0.060361 -0.029109 -0.001068 0.005268 0.005113 -0.051171 -0.039185 -0.064756 -0.032222 -0.037085 0.009323 -0.101189 0.003700 0.012582 -0.000194 0.073538 -0.021535 -0.012090 0.046802 0.029767 -0.018830 -0.035650 -0.016789 0.048503 0.049990 -0.030151 -0.015740 0.058140 0.068447 -0.000009 0.047365 -0.022500 0.098906 -0.022457 -0.074982 -0.007666 -0.057402 0.033595 -0.105644 0.020614 0.010275 0.083724 -0.004314 0.040988 -0.042043 -0.030320 -0.077577 0.007916 -0.009700 -0.010107 0.024601 0.045345 -0.017098 0.020833 0.071480 -0.076204 -0.016860 0.067836
unicef-internship-program.txt 0.188510 -0.135434 0.351695 -0.103736 0.069847 -0.024206 0.039575 0.001343 -0.048391 -0.030169 -0.028901 -0.025094 -0.036838 0.015973 0.011878 -0.041422 0.020191 -0.047538 -0.054812 0.038181 0.047273 0.002726 0.014522 -0.023869 -0.024008 -0.002727 -0.065023 -0.021493 0.143989 -0.147112 0.047865 0.035042 0.166519 -0.289227 -0.142074 0.271331 -0.061033 0.463113 -0.050008 -0.125054 0.252321 0.016885 -0.182658 0.234791 0.038080 0.045737 -0.040958 0.096256 0.061185 -0.105186 0.042296 0.061806 0.072056 -0.003998 0.011666 -0.028320 0.030684 -0.001158 -0.014817 0.030225 0.010524 -0.049612 0.037297 0.004743 -0.046170 -0.013531 -0.027872 0.001560 0.018361 0.001443 -0.013848 -0.024416 -0.018842 0.003171 -0.015119 0.017313 0.014662 0.008553 -0.007031 0.018149 -0.002444 0.012499 0.006908 0.003100 0.000766 0.016043 -0.003261 -0.008262 0.005477 -0.007491 0.002634 0.011618 0.000689 0.006008 0.008149 0.004232 0.005204 -0.010357 -0.001233 0.019060
nasa-beyond-the-algorithm-challenge.txt 0.115859 -0.055932 0.055630 0.048853 -0.017580 0.106766 -0.215304 -0.092489 0.048757 0.121763 -0.112112 0.000222 -0.038419 0.035619 0.018381 0.042729 -0.028791 0.016332 0.016279 0.009799 -0.182985 0.190731 -0.187798 0.035347 0.258586 0.152511 -0.123893 0.308662 0.101577 -0.152369 0.048392 -0.022728 0.037769 0.045834 -0.121190 -0.021677 -0.032840 -0.032831 -0.116424 0.008859 -0.047910 0.018581 0.051432 0.042841 -0.028956 0.002334 0.012866 0.043631 -0.001487 0.026628 -0.021369 0.014736 -0.049624 -0.076335 -0.007452 0.005775 0.026469 -0.005716 0.025322 0.046937 0.001838 -0.031067 -0.000542 -0.013039 0.031139 0.023071 -0.060367 0.036465 -0.008720 -0.019749 0.062454 -0.003837 -0.012391 0.120438 0.003225 -0.056337 -0.042255 0.004796 -0.049206 -0.016408 0.021537 0.086712 -0.015634 -0.033452 0.016893 -0.031254 -0.003523 0.064641 -0.021624 0.014794 0.009030 -0.002907 -0.061543 -0.067177 0.020651 -0.017793 0.005672 -0.031613 0.010704 -0.005155
mit-online-courses.txt 0.200630 0.048169 0.021366 0.000850 0.261748 0.042279 -0.087142 0.006043 -0.029220 -0.002778 0.028222 0.076439 0.064632 -0.025947 0.009102 -0.026604 0.004097 -0.192570 -0.040932 -0.072488 0.158091 0.085215 -0.001187 0.086349 0.191075 -0.025666 -0.073048 0.026377 -0.022411 0.109328 -0.049477 -0.043221 -0.251120 -0.059842 0.201987 0.117420 0.097893 -0.048666 -0.019097 0.098877 0.173516 -0.000952 0.081417 0.017940 0.075733 -0.007312 0.133683 -0.157924 -0.066646 0.066508 0.123905 0.165803 0.025278 -0.157441 0.160357 0.016131 0.121928 0.089336 0.003676 0.011141 0.057922 0.097181 -0.031186 0.000189 -0.058532 -0.022954 -0.001416 -0.037276 0.029039 -0.078981 0.042981 -0.071123 -0.010139 0.028526 -0.083408 0.091519 0.036664 0.006333 -0.029330 0.055110 0.009759 0.021083 -0.023316 0.028505 -0.049864 0.000388 0.032652 -0.049040 0.006029 -0.034900 0.042974 0.044107 0.018155 0.035101 -0.062014 0.029377 0.002831 -0.001705 -0.008545 -0.006940
university-of-amsterdam-merit-scholarship.txt 0.226117 -0.271237 -0.155038 -0.077888 -0.028181 -0.020762 0.039119 -0.009201 -0.003291 0.003178 0.012624 0.028103 -0.079347 -0.078731 0.052831 -0.004418 -0.026038 -0.032425 -0.010680 -0.038414 -0.007524 -0.008986 -0.035913 0.009522 0.015421 -0.052536 0.009152 0.001642 -0.058408 -0.006292 -0.005474 -0.030711 0.053842 -0.057022 0.022824 0.032528 -0.036723 -0.058377 0.015193 0.027973 -0.047097 -0.066228 -0.044548 0.019948 -0.014149 0.010217 0.020982 0.085645 0.029195 -0.023683 0.000354 0.031510 0.033823 -0.004761 0.004863 0.058178 -0.013372 -0.020251 -0.087406 0.031311 0.018501 0.024103 0.052993 -0.025245 0.076747 -0.011940 0.002511 -0.024786 -0.051670 0.064795 0.030587 -0.096094 -0.032093 0.000015 0.002734 0.107449 0.082433 0.039168 -0.036727 -0.083561 -0.036486 0.006380 0.052793 0.077743 0.210231 -0.001283 -0.070602 0.069414 -0.013626 0.015455 0.059030 -0.105083 -0.161897 0.050244 0.001535 0.111186 -0.071706 -0.034731 0.102768 0.013762
erasmus-mundus-internship.txt 0.225344 -0.212529 0.392358 -0.168389 -0.008332 -0.024855 0.099955 -0.014973 -0.089698 -0.024148 -0.029621 0.054300 -0.315980 -0.252550 0.042300 -0.077703 0.340155 -0.169855 0.354500 0.199542 0.058280 0.095474 0.023204 -0.169660 -0.014804 0.049213 0.006660 0.015465 0.019649 0.001875 0.032385 0.052912 -0.032916 0.061528 0.000496 -0.039498 -0.054994 0.007257 0.009987 -0.082238 0.025907 0.059838 0.011337 -0.023564 -0.000842 0.002907 -0.007477 0.004231 -0.031752 -0.004763 0.016933 -0.004680 -0.029159 -0.029812 -0.010172 -0.007063 0.049746 -0.016166 0.011796 -0.033532 -0.025655 0.003379 -0.010856 -0.003688 -0.005599 0.032082 -0.002703 0.036420 -0.027170 -0.009391 0.000516 0.020593 0.001564 -0.002969 0.012370 -0.010299 0.004793 0.018024 0.001846 0.030000 -0.002649 -0.024556 -0.025636 0.015830 0.001990 -0.026423 -0.000364 0.011884 0.003996 0.020392 0.006781 0.013158 -0.004693 -0.004879 -0.002722 -0.001765 -0.007453 0.008190 -0.011844 -0.016079
uk-department-for-education-free-online-certificate-courses.txt 0.333331 0.073281 -0.056066 -0.037555 0.279203 -0.003345 0.009844 -0.056796 -0.023310 -0.080443 -0.052565 0.079649 0.011547 0.169874 -0.135389 -0.069281 0.025249 -0.020618 0.034853 -0.001416 0.023204 -0.037716 0.005831 0.033811 -0.065513 0.070085 0.001934 0.064076 0.064617 -0.021777 -0.029125 0.025404 0.082837 0.036027 0.028421 -0.127092 -0.090202 -0.029296 0.097419 0.124850 0.125098 0.028892 0.010345 -0.010070 -0.095810 0.025313 -0.077512 -0.067220 -0.124741 0.058801 -0.045889 0.042456 0.106163 -0.012492 -0.012297 0.093663 -0.002561 -0.003303 -0.012430 -0.011169 0.026223 0.054699 -0.040644 -0.022362 -0.097871 -0.013367 -0.065159 0.067989 -0.040707 -0.005819 -0.103537 0.081856 -0.019511 -0.016617 -0.045679 0.093282 -0.120820 -0.019026 0.036289 0.046525 -0.014959 0.069833 0.071289 0.094194 0.095748 -0.086833 0.081004 -0.121178 -0.085225 0.078730 0.016050 -0.014593 0.005274 -0.082463 -0.078810 0.010183 0.032827 0.016716 -0.011359 0.015881
hennges-global-internship-program.txt 0.207656 -0.152733 0.372789 -0.130389 -0.029955 0.002679 0.063657 0.040819 -0.136576 0.247573 0.128749 0.057915 0.077996 0.143485 -0.026754 0.032655 -0.011544 -0.003074 -0.010543 -0.019680 -0.007905 0.056088 -0.041609 -0.043418 -0.012125 -0.001423 0.028479 -0.004485 0.034407 -0.038557 0.014691 0.008894 -0.018588 0.042594 -0.002558 -0.050378 -0.024561 -0.019222 -0.026124 -0.037434 0.006650 -0.038698 -0.048616 -0.009483 -0.011348 -0.208094 -0.031188 0.005710 0.047967 0.024240 0.002995 -0.024840 0.039123 -0.043056 -0.012557 -0.000814 -0.022981 0.063783 -0.112650 0.034613 -0.002620 0.061276 -0.040284 0.074240 0.032353 -0.070120 0.074382 -0.054852 -0.017512 -0.033607 -0.041813 -0.024362 -0.083514 0.031973 -0.015361 -0.060492 0.002563 0.041730 0.023896 0.074202 0.022767 0.013282 -0.013153 0.018740 -0.021073 0.041236 0.062857 -0.048913 -0.037489 0.084163 -0.017942 -0.036656 -0.054494 0.032204 -0.032622 0.047273 0.011649 -0.033213 0.037337 -0.002234
learn-english-free-online-course.txt 0.535838 0.340542 -0.036934 0.004610 -0.237443 -0.074604 -0.008557 0.055997 -0.087585 -0.013310 -0.043845 -0.047830 -0.033002 -0.021297 -0.058703 0.084246 0.002013 -0.090426 -0.063682 0.090876 -0.036006 -0.020900 0.042227 -0.004111 -0.056731 0.038166 -0.095067 -0.024278 0.049791 -0.050432 -0.032903 0.022713 0.119191 0.024365 0.020704 -0.025629 0.041920 0.010510 -0.038725 0.055512 0.000493 -0.121991 0.082945 -0.016314 0.165118 -0.005143 0.089547 -0.052369 0.003592 0.018717 0.036346 0.040936 0.030390 0.007158 0.005048 -0.018694 -0.027227 0.069493 -0.047466 0.059811 0.027456 -0.013790 0.087762 0.011734 -0.013088 -0.046209 0.022450 -0.003362 -0.018536 0.025082 -0.012859 -0.022021 -0.006922 0.030328 -0.008010 -0.003952 -0.033408 -0.000121 -0.031768 0.001093 0.004112 -0.031538 0.038201 -0.071196 0.009225 0.029071 -0.047537 0.006361 -0.020484 0.020125 0.006832 -0.028792 -0.006529 -0.035415 0.077055 -0.025133 -0.050919 -0.038037 -0.002216 0.030580
generative-ai-for-everyone-free-course.txt 0.396931 0.304578 -0.023453 0.050303 -0.246209 0.194556 0.259526 -0.209425 0.132790 0.072226 -0.012830 -0.104916 -0.106236 0.184333 0.194855 -0.218211 0.043588 0.013105 -0.010149 -0.021545 0.049523 -0.018478 -0.035037 0.037552 0.015177 -0.013505 0.050326 -0.025718 -0.007884 0.040567 -0.002538 0.005600 -0.034701 0.017173 0.005462 0.014724 0.039760 0.023541 0.052245 0.005484 0.021647 0.009273 0.000465 0.017170 0.041913 0.000184 -0.026530 0.013421 -0.004533 -0.020483 0.007511 0.001561 0.008894 -0.032938 0.004914 0.003018 0.035921 0.047189 -0.014316 -0.000610 0.004679 -0.000394 0.032461 -0.002158 -0.036161 -0.017555 0.008588 0.017643 0.013181 0.015467 0.015401 0.016088 0.010028 -0.011059 0.007855 -0.011372 0.004982 -0.001006 -0.002279 0.021486 0.023289 0.007945 0.003479 0.015430 -0.014766 -0.007802 -0.034768 0.010738 -0.011236 0.007810 0.013080 0.004141 0.012656 0.014772 0.005063 -0.001342 0.007956 -0.001668 -0.004941 -0.008207
mit-entrepreneurship-course.txt 0.401992 0.264427 -0.010144 0.004784 -0.136864 -0.055787 -0.079776 0.094047 0.061969 0.059283 -0.038686 0.017210 0.040592 -0.012934 -0.059752 -0.014748 -0.011701 -0.200123 0.040210 -0.094303 0.004138 0.108046 0.011352 0.007051 0.120459 -0.000980 -0.093089 -0.010783 -0.035606 0.061525 -0.013996 -0.135716 -0.168494 -0.120527 0.295107 0.197905 0.091975 -0.105902 -0.161047 -0.053634 0.151165 0.175984 -0.008374 -0.087777 0.093367 0.007398 -0.053239 -0.015145 0.032389 0.062597 0.203343 0.018407 0.087543 0.022102 0.063055 0.069418 0.078429 0.013533 0.041237 0.020779 0.026719 0.018498 0.015138 -0.038547 -0.011106 -0.042520 -0.004457 0.063437 0.051582 -0.051801 -0.053678 0.003505 -0.018688 -0.046489 0.072266 -0.012120 -0.022154 -0.017374 0.037723 -0.036976 -0.036038 0.007108 0.003535 0.024466 0.022061 -0.026379 -0.051655 0.021736 0.033535 0.020760 -0.012547 -0.018495 -0.019035 -0.039003 0.004973 -0.018387 0.025604 -0.040309 0.018190 -0.014696
free-spanish-language-course.txt 0.351951 0.241551 -0.007827 0.000697 -0.177305 -0.040651 -0.007150 0.042750 -0.026480 0.018016 -0.022088 -0.030608 -0.024500 0.005893 -0.053103 0.014511 0.012174 -0.102483 -0.019944 -0.026990 -0.044396 0.043338 0.049950 -0.014082 0.019956 0.054018 -0.012472 -0.040229 0.010879 0.032029 -0.034390 0.045909 0.094577 -0.034100 -0.001475 0.032113 0.017813 0.063271 -0.010930 -0.039147 -0.030817 0.068836 0.022614 -0.044135 0.021890 0.027036 0.021948 -0.098841 0.021921 -0.027541 -0.029956 -0.027846 -0.006349 0.013232 -0.025214 0.024130 -0.026153 0.083516 0.017642 -0.002683 0.034288 -0.000094 0.001370 0.044876 0.007436 -0.051955 -0.020203 -0.040382 0.092607 0.061697 0.046045 -0.092001 0.039500 0.054036 0.035729 -0.003257 -0.028382 -0.086350 -0.110805 -0.162153 0.015863 0.016802 0.098256 -0.069840 0.077828 -0.071931 0.002683 -0.047132 0.003166 -0.002403 -0.045113 -0.033956 -0.048904 0.024997 -0.107004 0.121773 -0.003605 0.034265 -0.089908 0.006766
king-abdulaziz-university-scholarship-in-saudi-arabia.txt 0.244654 -0.242959 -0.145092 -0.073056 -0.002328 -0.052814 0.033870 -0.011251 -0.010542 -0.031643 -0.000515 -0.013025 -0.037566 -0.000319 0.010829 0.020053 -0.041553 0.005620 -0.004086 -0.033097 0.054624 -0.018288 -0.086108 -0.010196 -0.083629 -0.007888 0.012148 0.018062 0.130423 0.029873 -0.062442 0.009865 0.005969 0.064115 -0.017952 0.106949 -0.094358 -0.113225 -0.001082 0.039903 -0.056816 -0.054553 -0.071223 -0.081151 0.071053 -0.071329 -0.012686 0.167381 0.104138 -0.008121 0.041243 0.127677 -0.078906 0.142782 0.046984 -0.027603 0.143747 0.091669 0.281873 0.077802 0.136789 -0.179316 -0.032197 -0.191709 -0.082516 0.157526 0.109835 -0.176819 0.078214 0.093602 0.040090 -0.091156 -0.128825 -0.014287 0.059250 -0.115868 0.085204 -0.014647 0.027444 0.079932 0.012136 -0.029189 -0.031881 -0.009302 0.047080 -0.038595 0.098680 0.001674 0.027278 -0.017720 0.003322 0.019295 -0.019578 0.009636 -0.000354 0.007037 0.000218 -0.009220 -0.010152 0.013870
gates-cambridge-scholarship.txt 0.226034 -0.237361 -0.157497 -0.069127 0.000331 -0.047000 0.047619 -0.017941 0.071723 -0.050775 -0.012086 0.068888 -0.004014 0.085838 0.010971 0.034504 -0.030076 -0.037074 0.044186 0.005768 0.004745 -0.011247 0.081151 0.058966 0.009873 0.017797 0.032432 0.060070 -0.064403 -0.035514 0.024466 -0.015555 0.147615 -0.083353 0.099265 -0.057661 -0.126332 0.019830 0.051761 0.142729 -0.002898 0.086775 -0.115957 -0.027256 0.038983 -0.103856 0.014873 -0.054075 -0.060423 0.031142 -0.077070 0.206937 -0.004418 -0.035352 0.056848 0.052694 0.114802 0.025312 -0.028307 0.143949 0.029449 -0.089523 -0.126027 0.132613 0.193027 0.048888 -0.031408 0.199241 0.030570 -0.017856 -0.007905 0.189619 0.228447 -0.031681 0.207351 -0.246883 0.130514 -0.009393 -0.044418 -0.025207 0.127093 -0.054063 0.040005 -0.012863 0.077140 0.059899 0.003263 -0.011513 0.008118 -0.073397 -0.019549 -0.025096 -0.018346 0.039298 0.038836 0.033706 -0.022107 0.097645 -0.023714 0.028559
ist-internship-program-in-austria.txt 0.162507 -0.145860 0.342871 -0.075738 -0.004144 -0.045934 0.083563 0.009028 -0.032613 0.014120 -0.083708 -0.088264 0.039941 -0.056345 -0.004758 -0.047502 0.021876 0.007543 0.014155 0.042570 0.014217 -0.001463 0.027775 -0.020957 0.009755 0.004624 0.017866 -0.020034 0.017431 -0.027999 0.014159 -0.045857 -0.013027 -0.048138 0.005376 0.015363 0.002292 0.023202 0.025049 0.026500 0.018485 -0.070820 -0.033443 -0.013164 -0.060179 0.026860 -0.035107 -0.041822 -0.055319 0.097274 0.006246 0.066063 -0.085645 -0.042104 0.073790 0.061178 -0.001502 -0.026796 -0.026661 -0.029949 -0.037820 -0.088048 -0.054899 -0.002362 0.041843 0.071653 0.042639 0.077513 -0.007032 0.036137 -0.017689 -0.020158 -0.112904 -0.072742 0.009916 0.006960 -0.135737 0.078052 0.052350 -0.024590 -0.144538 -0.004655 0.022239 -0.018465 0.088919 -0.085584 -0.111261 0.073858 0.126214 -0.089572 0.038044 -0.025696 -0.022263 -0.151364 -0.098334 -0.183230 0.012935 0.047583 -0.077168 -0.047796
short-stay-visiting-expert-grants-in-belgium.txt 0.082811 -0.051872 0.019270 0.044909 0.027133 0.005591 -0.026592 -0.016347 -0.032820 0.021071 0.001038 -0.023718 -0.000690 -0.013634 -0.005118 -0.024874 0.043997 0.045584 -0.028493 -0.000717 0.010506 -0.024957 0.019268 0.028561 0.041462 0.003359 -0.002204 -0.040092 0.070709 0.024272 -0.017569 -0.044935 -0.030718 -0.029917 -0.051115 -0.107047 0.045789 0.096041 0.049709 0.061031 0.094505 0.018477 0.024411 -0.059045 -0.040291 -0.004300 0.015336 0.044253 -0.022215 -0.027950 -0.037723 0.034440 0.051945 0.073810 0.030344 0.084112 -0.093790 -0.029607 0.091338 0.064452 0.054179 0.052469 0.060860 0.024345 0.200346 0.011001 0.076519 -0.222970 0.113777 -0.197175 -0.144370 -0.072632 0.038773 0.099761 0.206091 -0.043352 -0.028005 0.355497 0.100958 -0.321511 -0.070567 -0.048211 0.085429 0.064394 -0.158498 -0.190667 0.055385 0.011769 -0.206699 0.029585 0.018217 0.000467 0.113561 -0.025107 -0.019426 -0.060367 -0.105949 0.081362 -0.043263 -0.025449
royal-holloway-university-of-london-scholarship-in-uk.txt 0.230012 -0.265836 -0.169384 -0.060280 -0.026339 -0.049286 0.014792 -0.049343 0.048822 -0.050069 -0.012209 0.062687 -0.002135 0.045905 -0.032125 0.013623 -0.048528 -0.077824 0.068461 0.008203 0.043740 -0.052300 -0.080370 0.081266 -0.056358 0.042592 0.057045 0.049330 0.102104 0.016586 -0.098997 -0.129226 0.068271 -0.030462 0.058007 0.078301 -0.131632 0.004528 0.082586 0.144536 -0.069376 -0.144814 -0.047867 -0.089092 -0.011844 -0.022066 -0.099731 0.017234 0.049994 -0.130998 0.132095 0.013418 0.086751 -0.077469 -0.069943 0.013260 -0.010099 0.001894 0.068890 -0.114790 -0.144787 -0.025836 0.007715 0.065116 -0.071066 -0.012378 -0.118921 -0.040622 -0.068614 -0.094362 0.177197 -0.032055 0.044097 0.043056 0.052790 0.085943 -0.007019 -0.006673 0.054570 -0.064866 0.028059 -0.051929 -0.018819 -0.085009 -0.080655 -0.018631 -0.086405 0.015014 0.054634 0.069291 0.078823 -0.029976 -0.033303 -0.052375 -0.050324 -0.055066 0.092252 0.090393 0.028708 -0.046665
anthony-lester-fellowship.txt 0.125744 -0.097734 0.086338 0.420821 0.014192 -0.013474 0.020433 0.068244 0.026076 -0.024404 0.007867 0.085707 -0.050441 0.045163 0.016056 0.052227 -0.036935 -0.048788 0.059146 -0.013333 -0.001429 -0.021319 -0.023020 -0.075161 -0.021837 -0.050890 0.014527 -0.021213 0.024567 -0.025155 0.007913 -0.012710 0.019407 -0.013214 -0.074620 0.173860 -0.074143 -0.063569 -0.074111 0.017447 -0.031580 -0.032952 0.114737 -0.117488 -0.091061 0.037157 0.069008 0.038778 -0.047641 0.060307 -0.118777 -0.083163 0.120130 -0.048704 0.073457 -0.165407 0.035311 0.179878 -0.085934 0.098119 -0.008928 -0.016994 0.091130 0.152770 -0.119666 0.205657 -0.044435 -0.006379 0.144392 -0.029044 0.071107 0.010993 0.080690 -0.071281 -0.083018 -0.082576 -0.078200 0.101167 0.102910 -0.019892 0.058447 0.036595 -0.142133 0.086527 0.035985 0.046766 -0.009191 0.015248 -0.053212 0.002032 -0.031215 0.003968 -0.004690 0.000133 -0.012278 -0.029298 -0.065257 0.007617 0.019571 -0.033558
kaist-global-it-technology-program.txt 0.274483 -0.280774 -0.096367 -0.010092 -0.035832 0.019227 -0.014293 0.000680 -0.034601 0.069107 0.038755 0.013797 -0.132014 -0.098925 -0.011036 -0.018360 -0.113940 0.031771 -0.040811 -0.054831 0.000071 0.344647 0.110355 0.351200 -0.142284 -0.102565 -0.022175 -0.042165 -0.010383 -0.108965 -0.152258 -0.023326 -0.114426 -0.022310 -0.034878 -0.051796 -0.034412 0.012984 0.057007 -0.005823 0.040729 0.075670 -0.030261 -0.046892 -0.001694 0.055378 0.042890 0.023474 0.023050 0.035737 -0.012855 0.037115 -0.043611 0.051602 -0.104424 -0.017075 0.005045 0.039667 -0.073286 -0.018174 -0.032566 -0.059158 0.104186 0.095638 0.034194 0.107052 -0.033012 -0.023330 -0.099934 -0.094018 -0.131104 -0.053153 -0.053561 -0.056533 -0.005143 -0.048468 -0.039467 -0.025356 -0.038763 0.014381 -0.000659 0.030413 0.021682 -0.021641 -0.050950 0.034356 -0.045549 -0.024779 -0.060145 -0.012204 -0.007648 -0.029951 -0.050024 0.013676 -0.031009 0.035527 -0.012112 -0.028829 -0.021012 0.020774
ums-international-priority-scholarship-in-indonesia.txt 0.223257 -0.254278 -0.124803 -0.059184 -0.023544 0.010591 0.029925 -0.016459 -0.042034 0.004402 0.043680 0.052672 -0.085962 -0.061958 0.038852 -0.010357 -0.055297 0.002082 0.006710 0.017654 0.023804 -0.019702 -0.008780 0.040557 -0.002981 -0.045466 -0.032485 -0.017493 0.000145 -0.005976 0.013719 -0.042009 0.050281 -0.031841 0.001470 0.049055 0.051203 -0.023329 0.017606 0.085933 0.002066 -0.004516 0.029634 0.010328 -0.086206 -0.016570 -0.055283 0.041590 -0.015315 0.008391 -0.042665 0.025487 -0.007693 0.034698 0.010636 -0.025664 -0.100938 0.042342 0.094876 0.021223 0.028436 0.026053 -0.022889 -0.022670 0.003516 -0.049897 0.052352 -0.005280 0.026527 0.016033 -0.094669 -0.059373 0.006864 0.169602 0.008581 -0.010236 -0.078631 -0.061451 -0.124855 -0.217907 0.010219 -0.030968 0.017667 0.164366 -0.061909 0.048474 0.009058 -0.033916 0.144513 0.123626 -0.086789 0.029965 0.092441 0.173407 -0.154688 -0.042972 -0.061686 -0.134187 0.075571 -0.036800
harvard-university-free-online-course-on-contract-law.txt 0.271522 0.144768 -0.015175 -0.006303 -0.009472 -0.044080 -0.041499 0.155389 0.108144 0.067247 0.035024 -0.040415 -0.012051 -0.025926 -0.012414 -0.053948 0.003138 0.073553 0.023403 -0.001859 0.017655 -0.070185 -0.033873 -0.028029 -0.038761 -0.011787 -0.063020 0.007727 0.057115 -0.040632 0.032497 0.020112 0.025808 -0.006792 -0.035789 -0.008416 -0.047009 0.000088 -0.033700 0.020059 0.016228 0.040510 0.016812 -0.062603 -0.094007 0.064365 -0.020767 0.016788 -0.073137 0.073371 -0.020090 -0.092790 0.129845 -0.040478 0.086727 -0.005183 -0.035313 0.091366 0.000162 0.062742 0.008954 -0.089883 -0.091413 0.042041 0.080859 0.117884 -0.124217 -0.016267 0.037322 -0.042631 -0.078255 -0.122119 0.170608 -0.070130 -0.061715 0.082394 0.050525 0.031028 0.019556 0.094748 0.140435 -0.045118 -0.132728 -0.058721 -0.067981 -0.059481 0.039818 0.028280 -0.030349 -0.005192 0.038535 -0.103012 0.016901 -0.032096 -0.211554 0.075532 -0.003788 0.017871 -0.049809 0.111608
microsoft-global-university-internship.txt 0.198146 -0.169541 0.450557 -0.144507 -0.008463 -0.063841 0.084741 0.026482 0.006266 0.029569 -0.130974 -0.015279 0.022802 0.025036 0.028710 -0.011372 -0.087335 0.007796 -0.003593 0.015596 0.020671 0.047480 0.015704 -0.001112 -0.045765 -0.048057 -0.034295 0.043643 -0.034332 -0.028196 -0.020617 -0.001852 0.026233 0.012583 0.003184 0.015339 -0.041679 -0.047250 0.023070 0.014502 -0.040304 0.095655 -0.172829 -0.119001 -0.031545 -0.111686 0.024085 -0.036837 0.010065 -0.083093 0.096256 -0.057009 -0.001585 0.064474 0.139632 -0.139156 -0.106333 -0.099728 -0.053614 0.027213 0.087599 0.106996 -0.053751 -0.025859 0.001754 -0.018490 0.054512 -0.050884 -0.053831 0.030879 -0.015361 0.069724 -0.042635 0.057692 -0.141848 -0.001034 -0.057518 0.019274 0.032807 -0.044879 0.084039 -0.043855 -0.023646 -0.010386 0.026498 0.005009 -0.049630 0.041770 -0.022739 -0.006252 0.054528 -0.105139 0.021144 0.065642 0.041135 0.104303 0.022783 0.005439 0.018908 -0.069776
japanese-language-free-course.txt 0.405009 0.232841 -0.012795 -0.027644 -0.176087 -0.055786 0.028410 0.070172 -0.152968 0.218677 0.108981 0.028054 0.075881 0.107170 -0.031372 0.073494 0.027068 -0.098736 0.008418 -0.065259 -0.058599 0.013583 0.025246 -0.065643 0.012883 0.050428 0.012167 -0.008089 0.003781 0.016058 -0.032771 0.058859 0.015710 0.005462 0.009596 -0.020821 -0.027564 0.031004 -0.013441 -0.063991 -0.019522 0.063753 -0.015852 -0.077118 0.021367 0.065533 0.032653 -0.075052 -0.015795 -0.045333 -0.015825 -0.033806 -0.004649 -0.004286 -0.013698 0.021879 0.034686 0.029888 0.010789 0.001256 -0.018408 -0.069406 0.028546 0.057241 0.015975 -0.062855 -0.005318 -0.023228 0.052043 0.088776 0.086734 -0.127955 0.064340 -0.021018 0.070990 0.016338 0.010503 -0.008489 -0.025464 -0.087193 0.049481 -0.037834 -0.003233 -0.039692 0.144517 -0.013249 0.068266 0.013126 -0.022547 -0.017300 0.027203 -0.064316 0.057056 -0.026485 -0.082235 -0.037090 0.035758 0.010745 0.074947 -0.086113
top-opportunities-expiring-in-february-2020.txt 0.067343 -0.037959 0.018773 0.031393 0.013670 0.080715 -0.056390 0.025550 -0.014120 -0.061122 -0.004686 0.029678 0.056881 -0.015840 0.002961 -0.012321 0.060137 -0.038144 -0.034268 0.017936 0.151424 -0.018113 -0.047534 -0.024997 0.026371 -0.021966 0.031227 0.023822 0.008695 0.021278 0.011211 0.065254 -0.079262 -0.063276 -0.048346 -0.010280 0.002453 -0.003277 -0.019760 -0.087867 0.022083 -0.033974 0.020229 0.031529 0.051609 0.035959 0.077623 -0.078073 -0.021491 0.083699 0.110095 0.097061 -0.064352 -0.094347 0.081206 0.260615 -0.038401 -0.013984 -0.092124 -0.065583 0.162169 -0.052907 -0.055610 0.104432 -0.036102 0.243768 0.159805 -0.059052 -0.150367 0.072108 0.143908 0.097061 0.091115 0.096701 -0.146710 -0.060125 0.160861 0.005060 0.165164 -0.088453 -0.047446 0.048961 0.151395 -0.028763 -0.222434 0.040026 0.095544 -0.052447 -0.045073 0.168066 -0.049235 -0.085828 -0.151897 -0.010302 0.023756 -0.017002 0.053613 -0.085596 -0.050341 -0.102494
amazon-customer-optimization-internship.txt 0.168177 -0.100045 0.369797 -0.120947 -0.043707 -0.017208 0.034447 -0.009642 0.089836 -0.083511 -0.031753 0.056235 0.039005 0.074295 0.021641 0.021732 -0.069255 -0.022389 0.051848 -0.081935 -0.055936 0.014427 -0.006315 0.082741 0.063983 0.114961 0.111905 -0.021300 -0.123561 0.002846 -0.102492 0.076716 -0.009876 0.155427 0.096656 0.046487 -0.101422 0.009904 0.032765 -0.005349 0.095511 -0.132771 0.237640 0.103717 0.029667 0.146379 0.032031 0.012223 0.160012 -0.066011 -0.011019 -0.077834 0.140250 0.019392 -0.123095 0.084846 -0.126409 -0.118096 0.085585 0.066580 0.023104 0.018221 -0.039486 0.020041 -0.059664 0.085087 0.036171 -0.019102 0.059940 -0.083854 -0.031756 -0.019307 -0.014167 -0.031005 0.044248 -0.082878 0.083800 -0.064995 -0.030795 -0.028668 -0.008383 0.042630 -0.023267 -0.033102 0.075556 0.020159 -0.044450 0.037149 0.016087 -0.022159 0.001410 -0.009222 -0.003613 0.009518 0.011606 -0.011873 0.025283 -0.008439 0.046269 -0.007012
how-long-should-a-good-resume-be-to-secure-a-job.txt 0.050439 -0.017949 0.053621 0.010199 0.021590 0.028057 -0.121543 -0.012364 0.006997 -0.079623 0.172369 -0.067274 -0.020984 0.032521 0.030415 -0.032702 -0.010983 0.001500 -0.045859 0.060109 0.056976 -0.037960 -0.009064 -0.005980 -0.017349 0.049072 -0.064605 -0.003107 0.002752 0.012954 -0.032148 0.063535 0.049914 -0.007050 -0.025832 -0.019869 -0.025701 -0.027003 0.004143 0.062259 -0.007992 0.041487 -0.077638 -0.000384 -0.074211 0.067643 -0.061358 -0.005849 0.062933 0.038547 0.062074 -0.193367 0.148538 -0.120600 0.084846 0.146499 0.054244 0.066769 0.016076 -0.147921 -0.092941 -0.100733 -0.021449 0.059186 0.216874 -0.130356 0.138227 -0.146357 -0.044346 -0.005916 0.047425 -0.032676 -0.045110 -0.090907 -0.132575 -0.302715 0.012318 0.029125 -0.055838 0.090386 -0.162974 -0.044235 -0.033227 -0.061927 -0.018416 -0.012334 0.027441 -0.014080 -0.066684 0.007781 0.145306 -0.075128 -0.041607 -0.087578 0.093187 -0.039124 0.027046 -0.104164 0.077578 -0.028818
max-planck-institute-law-internship-in-germany.txt 0.174864 -0.165791 0.353321 -0.093526 -0.005785 0.029298 0.084401 0.074842 -0.026243 -0.029135 -0.105938 -0.038316 0.042635 -0.023658 0.005768 -0.002330 -0.015686 -0.021592 0.031081 -0.046089 0.000629 -0.111409 0.018630 0.042055 0.059190 -0.056986 -0.064160 -0.037221 0.043797 -0.055125 0.039138 -0.010969 -0.035745 0.046587 -0.005029 0.040925 -0.031793 0.002117 -0.042078 -0.002460 -0.052650 0.007588 0.022559 -0.041349 -0.095650 0.037254 0.047680 -0.007475 -0.094463 0.034751 -0.021755 -0.036950 0.059562 -0.043481 0.047010 -0.125946 -0.035635 0.143378 -0.030141 0.046007 -0.102474 -0.057392 -0.085436 -0.086240 0.029452 0.089219 -0.033317 0.111696 -0.000309 0.038663 -0.011621 -0.101381 0.164037 0.010628 0.006980 0.003168 0.006847 0.004201 0.051081 0.080656 0.029129 -0.092057 0.013296 -0.112673 -0.180115 -0.043862 0.064536 0.064177 -0.013709 0.006304 -0.018872 -0.018459 0.007132 -0.046464 -0.059088 0.151124 0.015240 -0.068311 -0.087837 -0.011543
un-tourism-global-artificial-intelligence-challenge.txt 0.119272 -0.035336 0.050679 0.047961 -0.036737 0.179403 -0.093221 -0.130994 0.079789 0.142407 -0.109846 -0.015685 -0.074199 0.093567 0.091463 -0.037647 -0.040061 0.032060 -0.007306 -0.002464 -0.071827 0.238005 -0.143669 0.042317 0.213247 0.082598 -0.090710 0.280984 0.110248 -0.184288 0.037629 -0.050274 0.026445 0.083559 -0.083522 -0.049543 -0.024442 -0.017751 -0.153632 0.001968 -0.042928 -0.006800 -0.051498 -0.007607 -0.037130 -0.081913 0.090242 -0.009744 0.009817 -0.030023 -0.017965 -0.062971 0.002433 0.077479 0.040223 0.017229 -0.017674 -0.072577 -0.001919 0.023571 0.004858 0.007057 -0.016183 -0.012930 -0.039098 0.013900 -0.025105 0.021180 -0.065237 -0.054061 0.072500 -0.054115 -0.018437 -0.022633 -0.047801 0.024708 -0.040713 -0.007844 0.061476 -0.040763 -0.025568 -0.076662 0.064033 0.015788 -0.023403 0.042053 0.045870 0.030517 -0.078195 0.000356 -0.022357 -0.011037 -0.023651 0.020078 -0.010667 -0.033294 -0.046002 -0.006345 0.105640 0.004671
javascript-developer-job.txt 0.133741 -0.037162 0.180768 0.003863 0.018962 0.057004 -0.311509 -0.084199 0.052448 -0.211455 0.440430 -0.251146 -0.092631 0.108167 0.060604 -0.035388 -0.109663 -0.050236 0.102017 -0.014448 -0.108645 -0.007311 0.067232 -0.044244 -0.101814 0.000116 0.033020 -0.003631 0.038196 -0.003408 0.057926 -0.000365 0.001071 -0.019433 -0.017733 -0.033786 0.023394 -0.003253 -0.026464 0.052212 -0.018546 0.038676 -0.059634 -0.022805 -0.028256 0.023475 -0.041501 -0.010357 0.009111 0.043696 0.039932 -0.033428 -0.032556 -0.065748 -0.000463 0.044220 0.005232 0.002289 0.015906 0.125795 -0.053238 0.045231 0.074902 -0.031946 0.012988 0.013630 0.070649 -0.010197 0.000587 -0.083721 0.108361 0.008750 -0.011989 0.003030 -0.031091 0.025746 0.019128 0.005072 -0.039482 0.002878 0.012679 -0.005601 0.018684 -0.007058 -0.000414 -0.057960 -0.004212 0.001677 -0.004538 -0.009214 -0.017871 -0.045699 0.015538 -0.028993 0.017221 0.038775 -0.018179 -0.022278 0.017197 0.005287
social-psychology-course.txt 0.394839 0.254518 -0.028665 0.002117 -0.164285 -0.060062 -0.098800 0.073231 -0.056491 -0.027589 -0.069595 0.001289 0.033623 0.004386 -0.031441 -0.000846 0.008531 -0.095838 -0.038059 -0.045527 0.190657 -0.029555 0.028331 -0.011337 0.097966 -0.194828 0.084545 0.153266 -0.053290 0.041724 0.183882 0.127622 -0.145900 -0.119542 -0.108028 -0.146714 -0.257869 0.071142 -0.002033 0.088536 -0.115333 -0.019857 0.032616 0.049459 -0.061503 0.078950 -0.035745 -0.029390 0.281566 0.196443 0.147841 -0.022451 -0.063779 0.108864 -0.051852 -0.080674 0.067923 0.000990 -0.029630 -0.039199 -0.022684 0.066198 0.011667 -0.039017 -0.024414 -0.012442 -0.038592 0.003000 0.052566 -0.003319 -0.040450 -0.007985 0.022206 0.074904 0.009566 -0.042057 -0.017732 0.042978 -0.017800 0.003414 -0.017360 0.029444 -0.034369 -0.015310 0.003833 0.006402 -0.051282 -0.010967 0.008640 -0.018300 0.019965 0.016208 0.046794 0.005227 0.020348 -0.002087 -0.014536 0.054467 0.011409 -0.004273
university-of-otago-phd-scholarships.txt 0.273136 -0.269980 -0.144006 -0.013255 -0.000289 -0.130745 0.006889 -0.064408 0.036452 -0.051002 -0.021729 -0.182896 0.099762 -0.056690 0.081837 0.042768 -0.088265 -0.023091 -0.045380 -0.071085 -0.060531 0.086522 -0.277096 -0.313620 0.092862 -0.245701 -0.168872 -0.071736 -0.031807 0.019583 -0.194876 0.024493 0.026018 0.098992 0.133710 -0.106455 -0.072991 0.226533 0.223486 -0.164756 -0.050426 0.027618 0.034507 -0.034673 -0.002779 0.048896 -0.024269 -0.029513 -0.095883 0.117510 -0.032124 -0.008151 -0.010186 0.005156 0.008398 0.014190 -0.018684 0.050687 0.009467 0.051465 -0.011566 -0.004428 0.009071 -0.015835 -0.028614 -0.036866 -0.016295 -0.024063 -0.009822 -0.056963 0.003167 0.083184 0.004350 -0.001723 0.020695 0.006765 -0.046980 0.035154 0.047619 0.003390 -0.000774 0.024145 0.020486 -0.056032 0.014188 0.055817 -0.007454 0.002140 -0.024201 0.063210 -0.079115 -0.020530 0.043234 -0.031045 0.017039 0.023794 0.012547 -0.027311 0.026832 -0.001232
boston-university-trustee-scholarship.txt 0.211920 -0.206197 -0.111258 -0.041479 -0.020067 -0.032512 0.000503 -0.002505 0.018552 0.013187 0.002166 0.018322 -0.054718 -0.012168 0.026349 0.036050 -0.055060 0.022498 -0.014635 0.040791 -0.025941 -0.029217 -0.084227 0.002079 -0.012525 -0.021862 0.020413 -0.001691 -0.026221 -0.003166 0.046251 0.027589 0.031274 -0.055227 -0.021148 0.061733 -0.038224 -0.028433 0.043158 0.065549 0.042932 -0.053732 -0.036033 -0.077809 0.122757 0.064497 0.129645 0.072887 -0.017897 0.028664 -0.016833 -0.104582 -0.069560 -0.062939 -0.018544 -0.036148 -0.001069 -0.014931 0.053595 -0.176428 -0.062002 0.020805 -0.050494 0.061059 -0.067689 0.001932 0.161506 0.027160 0.111739 0.025894 -0.023911 -0.074030 0.054598 -0.100013 -0.017622 0.097634 -0.018329 0.026920 0.009168 -0.079705 0.012605 0.104209 0.094857 0.133844 -0.027097 -0.117339 -0.165725 0.101443 -0.029977 0.001202 -0.193263 0.030537 -0.107640 -0.038888 -0.089106 0.154403 0.044458 0.039933 0.006565 0.047881
google-artificial-intelligence-free-courses-with-certificates.txt 0.367607 0.269364 -0.005268 0.049251 0.213415 0.318872 0.398062 -0.469796 0.209578 0.076566 0.108115 -0.031493 -0.046345 0.038167 0.080841 0.023478 0.029159 0.117477 -0.030840 0.052196 0.062893 -0.055624 -0.023824 -0.000763 -0.014805 -0.038718 -0.043840 0.008348 -0.019422 -0.052206 0.026614 -0.025027 -0.085149 0.024401 0.053318 0.010330 0.006579 -0.021970 -0.018206 -0.022230 -0.017384 0.025122 -0.038816 0.004249 0.004946 0.015051 0.015123 -0.018209 0.030340 0.027998 0.014743 0.020278 -0.004855 0.023672 -0.022064 -0.018241 -0.053890 -0.033517 0.003598 0.033000 -0.010469 -0.015972 -0.019696 0.023756 -0.019437 0.011352 -0.001352 0.016662 -0.011414 0.029783 0.037963 -0.056728 0.006923 -0.013068 0.019160 0.021785 0.002065 -0.004561 -0.003812 -0.030847 -0.034805 0.018544 -0.013308 -0.022280 -0.014567 -0.007558 0.014357 0.011308 -0.013682 0.001070 0.031040 -0.003613 0.027105 -0.001298 0.030205 0.001778 -0.013892 0.001832 0.006784 0.010505
jiangsu-university-presidential-scholarship.txt 0.237856 -0.258422 -0.156762 -0.050410 -0.035857 -0.044075 0.042692 -0.007786 -0.016600 0.007122 0.024432 -0.005459 -0.084873 -0.098805 0.063121 0.018513 -0.137385 -0.008689 -0.111998 -0.002001 0.013970 -0.065885 0.004075 -0.050781 0.011123 0.128896 0.045869 0.036457 -0.019447 0.014332 -0.033939 -0.044089 -0.058067 0.014019 -0.012458 -0.016150 -0.061426 0.021274 0.011735 0.007301 -0.000010 0.027409 -0.051416 0.004347 0.015021 -0.014514 0.013789 0.009118 0.030721 -0.010234 0.010452 -0.004332 -0.008848 0.013493 0.019820 0.027476 -0.037752 -0.032628 -0.071920 -0.011291 -0.001659 0.032953 -0.001517 -0.011096 0.069304 0.016512 -0.045982 0.054228 0.025134 -0.003547 -0.010419 -0.059009 -0.099277 0.028073 -0.081311 0.053375 0.086106 -0.059507 0.016822 -0.072965 0.098164 -0.047025 -0.090378 0.064087 0.029104 0.008449 0.038945 -0.063389 0.064919 -0.083221 0.033407 -0.059344 -0.016928 -0.038880 -0.037211 -0.008520 -0.062823 0.027415 0.102754 0.041898
tomorrows-leaders-graduate-program.txt 0.170721 -0.089693 0.057354 0.059916 -0.046405 -0.016809 -0.030967 0.013133 -0.029456 0.010130 0.013123 -0.061365 0.033826 -0.006887 -0.072387 -0.043316 0.065614 0.051394 -0.093728 0.064965 0.006918 0.042410 0.004030 -0.013119 0.038650 -0.013893 -0.016863 -0.130329 -0.023799 -0.019881 -0.019097 -0.061770 -0.035997 0.102863 -0.028259 -0.029920 0.021109 0.088298 -0.108368 0.151117 0.017211 -0.066529 0.014047 0.047865 0.090577 -0.095135 -0.046304 -0.104552 0.013132 0.040209 -0.035691 0.108917 0.024796 0.011534 0.015714 -0.058288 -0.081089 -0.151634 0.181992 -0.055378 0.012317 -0.047897 0.055850 -0.162537 0.061528 -0.159594 -0.069595 0.100386 0.017500 -0.043227 0.162115 -0.101347 0.154912 -0.188497 0.007249 -0.155564 -0.030239 -0.016404 -0.099999 -0.016607 0.088710 0.085627 -0.095045 0.023133 -0.113970 0.035871 0.111303 0.024170 -0.048366 0.125141 0.022768 0.110253 -0.127184 0.024318 0.057257 0.038691 -0.050911 -0.018634 -0.100536 -0.035509
science-scilifelab-prize-for-young-scientists.txt 0.146735 -0.097238 0.053461 0.047738 0.002628 0.178550 -0.227369 -0.035666 0.027332 0.142039 -0.153195 0.005656 0.031913 -0.050736 -0.016430 0.051950 -0.102826 -0.042283 0.055449 0.011546 0.128817 -0.037741 0.093555 -0.113990 -0.070926 -0.096009 0.230233 0.000462 0.043801 -0.061963 0.039124 0.101393 0.003245 0.120133 0.079840 0.024941 0.297132 0.097659 0.135975 0.061123 0.022753 -0.076976 -0.054828 -0.022599 -0.010169 0.015081 0.007164 -0.003998 0.005670 -0.060397 -0.029056 0.031015 -0.085044 -0.108867 -0.019493 0.077314 0.098831 -0.001517 -0.000861 -0.032886 -0.005216 -0.034720 -0.068006 -0.004882 -0.037345 0.031764 0.001712 -0.056009 -0.051222 0.054784 -0.076444 -0.029545 0.042300 -0.029396 0.051907 0.051692 -0.074228 -0.039979 -0.052058 -0.017368 -0.032176 0.020845 -0.053961 0.006213 0.038327 0.000656 -0.054043 0.049608 -0.103640 0.041796 -0.020575 -0.014088 0.019382 0.000075 0.055496 -0.059489 0.103144 0.070426 -0.019931 0.017578
mext-teachers-training-student-scholarship-in-japan.txt 0.195620 -0.222527 -0.069352 -0.074483 -0.051208 0.020121 0.058375 0.046976 -0.288349 0.421862 0.389180 0.138472 0.166574 0.178232 0.040780 0.082265 0.103353 -0.014798 0.038970 -0.026995 -0.005700 -0.051199 -0.027298 0.009713 0.028606 0.009752 0.013293 0.046322 -0.006527 -0.000337 -0.005677 0.018686 0.004819 -0.008691 0.025038 0.036058 0.010545 -0.005485 0.036697 0.011044 0.021384 -0.000281 0.012603 0.040198 0.023107 0.237234 0.082189 -0.013694 -0.070102 -0.032376 -0.003562 -0.021231 -0.050921 0.091261 0.048341 -0.035779 0.052435 -0.041548 0.090957 -0.002747 0.012139 0.016178 0.076257 -0.087777 0.022876 0.083052 -0.055030 0.017925 -0.041372 -0.021133 0.026827 0.108378 0.023889 -0.037246 -0.047785 0.023054 -0.005706 -0.004113 -0.042547 -0.017995 -0.045508 -0.037172 0.019870 -0.008665 -0.047602 0.006567 -0.037329 -0.016767 -0.025858 -0.009284 0.008902 -0.009134 -0.013953 0.004642 0.015926 -0.001543 -0.011807 0.023658 -0.007491 -0.005774
united-nations-online-volunteer.txt 0.194298 -0.046158 0.059577 0.021043 0.078490 0.061403 -0.130185 0.006898 -0.025475 0.003544 0.014133 -0.042015 -0.075215 -0.028703 -0.087107 -0.082126 0.243829 0.103920 -0.220372 -0.089629 -0.057706 0.016271 0.052731 -0.025262 -0.047792 -0.080388 0.093010 0.129156 0.059944 -0.081530 0.116440 -0.170429 0.149239 -0.019158 -0.001400 0.218351 -0.095977 -0.064121 0.325852 -0.061983 0.007833 0.188896 0.351253 0.067494 0.017439 -0.118492 0.023225 -0.152504 0.060166 -0.045440 0.020824 0.009077 -0.061248 0.028255 0.056936 0.016238 0.033268 -0.060784 0.012171 -0.013138 -0.014049 0.008863 0.022217 0.042002 0.064776 0.025498 -0.022430 0.009624 -0.017134 0.044353 -0.021398 -0.032700 -0.012777 -0.040822 -0.065413 -0.019501 -0.018232 0.013133 0.032226 0.020496 -0.025254 -0.004775 0.003229 0.013811 0.010533 -0.015724 0.013486 -0.001186 0.015068 0.033429 -0.023326 -0.037363 0.045991 0.019395 0.015124 -0.025677 0.017397 0.031047 0.028697 -0.009852
glasgow-international-leadership-scholarship.txt 0.237525 -0.288577 -0.158206 -0.059353 -0.030337 -0.016532 0.002061 -0.038408 -0.009411 -0.019744 0.038201 0.103313 -0.043378 0.079376 -0.163676 -0.165945 -0.078917 0.057398 -0.017457 0.118686 0.010626 0.070784 0.017411 0.055742 -0.033710 -0.066698 -0.056033 -0.049084 -0.109173 0.025306 0.008025 0.000988 0.042601 0.055138 0.103074 0.007981 0.039531 0.102595 -0.147004 -0.012368 -0.127946 0.035010 0.088482 0.078337 -0.098549 -0.140966 -0.092409 0.083133 0.105224 0.042304 -0.056554 0.069413 -0.013672 -0.122349 -0.008859 -0.052634 -0.065114 0.028920 0.176329 -0.121512 0.154953 -0.030729 0.029423 -0.056657 0.037091 0.080810 -0.003664 0.120300 0.050953 0.005638 0.031184 -0.028854 0.053757 -0.029338 -0.121278 0.074198 -0.014427 0.093041 -0.104735 -0.008452 0.046418 -0.036671 0.080615 -0.022670 0.079249 -0.003961 0.009257 -0.035482 -0.010679 0.049448 0.012442 -0.060317 0.065266 -0.035966 0.038075 -0.004911 0.055397 -0.018794 -0.007609 -0.082207
if-social-impact-prize.txt 0.174863 -0.068483 0.068744 0.071470 -0.012960 0.132401 -0.357721 -0.153936 -0.001514 0.150070 -0.161801 0.110806 0.011941 -0.043441 0.089938 0.013338 -0.124323 -0.042326 0.039734 -0.021647 0.295874 -0.052996 0.131661 -0.098583 -0.052009 -0.147753 0.167910 0.085247 0.001776 -0.067036 0.088519 0.105465 0.013472 0.090653 0.040091 0.032824 0.126523 0.072548 0.017980 -0.019251 -0.050551 -0.049891 0.018564 -0.068410 -0.042235 0.076475 0.027787 0.002132 0.009380 0.070688 -0.045958 0.076159 0.079469 -0.015050 0.039131 -0.032279 -0.028493 -0.044916 0.064163 0.047296 -0.054592 -0.016669 0.038432 0.062047 -0.022618 0.001912 -0.040187 0.039782 -0.054212 -0.021232 0.033505 -0.004345 -0.065499 0.038963 0.039891 -0.017396 0.035262 0.021026 -0.016018 0.001637 0.001814 -0.040345 0.006128 -0.003836 0.033654 -0.074549 0.043548 0.023727 0.058810 0.029351 -0.013735 0.009855 0.015202 0.005294 -0.002317 0.056382 -0.027964 -0.055892 0.020657 0.048246
asef-young-leaders-summit.txt 0.159347 -0.117018 0.009723 -0.003267 -0.028430 0.454272 -0.050778 0.221206 -0.104216 -0.017600 -0.017864 -0.030852 0.150494 0.037826 -0.119017 0.051442 0.097199 0.022503 -0.075100 0.039262 -0.012209 0.064409 -0.006540 -0.118314 -0.070674 0.045130 0.015087 -0.011688 -0.033932 0.012803 -0.023058 0.035499 -0.002408 -0.000316 0.004360 -0.058462 -0.030750 -0.012195 -0.027496 -0.030613 0.047785 -0.027076 -0.045449 -0.031166 0.020296 -0.046392 -0.052466 -0.007684 0.029356 -0.008364 0.016471 0.015283 -0.008983 -0.067241 0.005304 -0.018774 0.049446 -0.078925 -0.007031 0.054883 0.046089 0.032316 -0.002512 0.063642 -0.038381 -0.003896 -0.026219 -0.028203 0.004168 -0.026892 0.018841 -0.042092 -0.010615 -0.005561 -0.010525 -0.048072 -0.015808 -0.000613 -0.019812 0.014099 -0.070999 0.005236 -0.100805 -0.023849 -0.035250 0.014310 -0.041064 -0.048470 0.058808 0.083777 0.013988 0.061206 0.061717 0.077670 0.048971 0.091097 0.005284 0.080319 0.027022 0.064284
